{"learner":{"attributes":{"scikit_learn":"{\"_estimator_type\": \"ranker\"}"},"feature_names":[],"feature_types":[],"gradient_booster":{"model":{"cats":{"enc":[],"feature_segments":[],"sorted_idx":[]},"gbtree_model_param":{"num_parallel_tree":"1","num_trees":"350"},"iteration_indptr":[0,1,2,3,4,5,6,7,8,9,10,11,12,13,14,15,16,17,18,19,20,21,22,23,24,25,26,27,28,29,30,31,32,33,34,35,36,37,38,39,40,41,42,43,44,45,46,47,48,49,50,51,52,53,54,55,56,57,58,59,60,61,62,63,64,65,66,67,68,69,70,71,72,73,74,75,76,77,78,79,80,81,82,83,84,85,86,87,88,89,90,91,92,93,94,95,96,97,98,99,100,101,102,103,104,105,106,107,108,109,110,111,112,113,114,115,116,117,118,119,120,121,122,123,124,125,126,127,128,129,130,131,132,133,134,135,136,137,138,139,140,141,142,143,144,145,146,147,148,149,150,151,152,153,154,155,156,157,158,159,160,161,162,163,164,165,166,167,168,169,170,171,172,173,174,175,176,177,178,179,180,181,182,183,184,185,186,187,188,189,190,191,192,193,194,195,196,197,198,199,200,201,202,203,204,205,206,207,208,209,210,211,212,213,214,215,216,217,218,219,220,221,222,223,224,225,226,227,228,229,230,231,232,233,234,235,236,237,238,239,240,241,242,243,244,245,246,247,248,249,250,251,252,253,254,255,256,257,258,259,260,261,262,263,264,265,266,267,268,269,270,271,272,273,274,275,276,277,278,279,280,281,282,283,284,285,286,287,288,289,290,291,292,293,294,295,296,297,298,299,300,301,302,303,304,305,306,307,308,309,310,311,312,313,314,315,316,317,318,319,320,321,322,323,324,325,326,327,328,329,330,331,332,333,334,335,336,337,338,339,340,341,342,343,344,345,346,347,348,349,350],"tree_info":[0,0,0,0,0,0,0,0,0,0,0,0,0,0,0,0,0,0,0,0,0,0,0,0,0,0,0,0,0,0,0,0,0,0,0,0,0,0,0,0,0,0,0,0,0,0,0,0,0,0,0,0,0,0,0,0,0,0,0,0,0,0,0,0,0,0,0,0,0,0,0,0,0,0,0,0,0,0,0,0,0,0,0,0,0,0,0,0,0,0,0,0,0,0,0,0,0,0,0,0,0,0,0,0,0,0,0,0,0,0,0,0,0,0,0,0,0,0,0,0,0,0,0,0,0,0,0,0,0,0,0,0,0,0,0,0,0,0,0,0,0,0,0,0,0,0,0,0,0,0,0,0,0,0,0,0,0,0,0,0,0,0,0,0,0,0,0,0,0,0,0,0,0,0,0,0,0,0,0,0,0,0,0,0,0,0,0,0,0,0,0,0,0,0,0,0,0,0,0,0,0,0,0,0,0,0,0,0,0,0,0,0,0,0,0,0,0,0,0,0,0,0,0,0,0,0,0,0,0,0,0,0,0,0,0,0,0,0,0,0,0,0,0,0,0,0,0,0,0,0,0,0,0,0,0,0,0,0,0,0,0,0,0,0,0,0,0,0,0,0,0,0,0,0,0,0,0,0,0,0,0,0,0,0,0,0,0,0,0,0,0,0,0,0,0,0,0,0,0,0,0,0,0,0,0,0,0,0,0,0,0,0,0,0,0,0,0,0,0,0,0,0,0,0,0,0,0,0,0,0,0,0,0,0,0,0,0,0,0,0,0,0,0,0,0,0,0,0,0,0],"trees":[{"base_weights":[-4.6684E-3,1.2827334E-1,-2.9869127E-1,9.9109225E-3,2.8015876E-1,-3.8440788E-1,-1.6478397E-1,2.5912073E-1,-4.539571E-2,3.8931346E-1,1.5891457E-1,-3.5093856E-1,-3.2587603E-2,-5.79397E-2,-2.7625713E-1,5.047055E-1,1.9069153E-1,-2.2236755E-1,1.3208905E-2,4.2540023E-1,1.03706606E-1,3.0557594E-1,8.0152996E-2,-4.18699E-1,-2.0395993E-1,-1.3706847E-2,-7.4658645E-3,-2.0449702E-1,-4.1319656E-1,3.1514443E-2,1.4568552E-2,-9.9620074E-2,2.9716924E-1,-2.608716E-1,6.4015924E-3,6.682821E-2,-1.1012577E-1,4.4388652E-1,5.3762463E-3,-2.0154982E-3,1.2239167E-2,3.6253336E-1,5.9809827E-4,1.2490607E-1,-6.4987846E-2,-2.7534625E-2,-3.787525E-1,-1.5634844E-1,-1.7621484E-2,3.1004265E-2,-8.2490025E-3,-3.230429E-1,-1.3311979E-1,-9.356893E-3,-2.8119052E-2,1.9611514E-3,-1.3818818E-2,2.2323204E-3,3.396638E-1,-8.1938334E-2,-3.5459936E-1,-1.344411E-1,1.1209802E-1,-1.5532249E-1,6.0176603E-3,6.4836033E-3,4.6114922E-1,4.101712E-1,9.131021E-3,1.8570207E-1,6.049083E-2,2.5127705E-3,-1.2547259E-1,-6.19959E-3,-3.987267E-1,-1.1028789E-1,-2.4332458E-1,-3.502582E-2,1.13051884E-1,-2.404712E-2,-4.952089E-3,-1.623267E-4,-1.7125753E-1,8.457607E-3,3.7061173E-1,-2.3270927E-2,1.0327714E-1,-2.2791682E-2,-2.2049397E-1,-2.6537254E-1,3.39808E-2,2.0229585E-2,2.4338433E-1,-2.2536838E-1,2.3786057E-5,5.1892865E-1,3.861409E-1,1.3477787E-2,2.3339855E-2,1.4956559E-1,1.4392403E-2,1.2091059E-1,-4.1101333E-3,2.845752E-3,-1.2390564E-2,-8.76918E-3,-4.154458E-1,-1.6003567E-1,4.0878174E-3,-7.088072E-3,-1.4740131E-2,8.461286E-3,-1.2839645E-1,-8.247474E-3,1.305069E-2,-2.3221443E-3,-2.3131667E-1,2.295942E-2,1.2538344E-2,1.2571754E-2,-4.202766E-3,-2.607866E-3,-1.4546773E-2,-1.888111E-2,-1.7200792E-3,1.0125357E-2,-9.170928E-3,1.3878465E-2,-1.1229458E-3,1.5622E-2,-1.066958E-3,-1.4297105E-2,-4.9086637E-3,-1.2084115E-2,1.0131903E-2,2.6729394E-2,1.4901392E-2,1.6770056E-2,2.4374269E-2,9.723913E-3,4.0391792E-4,1.2993835E-2,3.0752993E-3,-2.489877E-2,-1.7403176E-2,-1.1540875E-2,-4.558394E-3,-1.0628418E-2,-1.1364871E-3,-1.5761973E-2,-5.9543173E-3],"categories":[],"categories_nodes":[],"categories_segments":[],"categories_sizes":[],"default_left":[0,0,0,0,0,0,0,0,0,0,0,0,0,0,0,0,0,0,0,0,0,0,0,0,0,0,0,0,0,0,0,0,0,0,0,0,0,0,0,0,0,0,0,0,0,0,0,0,0,0,0,0,0,0,0,0,0,0,0,0,0,0,0,0,0,0,0,0,0,0,0,0,0,0,0,0,0,0,0,0,0,0,0,0,0,0,0,0,0,0,0,0,0,0,0,0,0,0,0,0,0,0,0,0,0,0,0,0,0,0,0,0,0,0,0,0,0,0,0,0,0,0,0,0,0,0,0,0,0,0,0,0,0,0,0,0,0,0,0,0,0,0,0,0,0,0,0,0,0,0,0],"id":0,"left_children":[1,3,5,7,9,11,13,15,17,19,21,23,-1,25,27,29,31,33,35,37,39,41,43,45,47,-1,49,51,53,-1,-1,55,57,59,-1,61,63,65,-1,-1,-1,67,-1,69,71,-1,73,75,-1,77,-1,79,81,-1,-1,-1,-1,-1,83,85,87,89,91,93,-1,-1,95,97,-1,99,101,-1,103,-1,105,107,109,111,113,-1,-1,-1,115,-1,117,-1,119,-1,121,123,125,127,129,131,133,135,137,-1,-1,139,-1,141,-1,-1,-1,-1,143,145,-1,-1,-1,-1,147,-1,-1,-1,149,-1,-1,-1,-1,-1,-1,-1,-1,-1,-1,-1,-1,-1,-1,-1,-1,-1,-1,-1,-1,-1,-1,-1,-1,-1,-1,-1,-1,-1,-1,-1,-1,-1,-1],"loss_changes":[3.3211094E1,1.0516311E1,2.9731445E0,4.558621E0,3.329237E0,1.2078228E0,1.2345691E0,9.1314316E-1,2.811771E0,1.33852E0,1.3972898E0,1.3572178E0,0E0,5.96803E-1,4.1786122E-1,1.5075397E-1,1.5313666E0,9.4314766E-1,1.3590555E0,6.502571E-1,3.4248304E-1,7.089119E-1,5.370781E-1,3.0916786E-1,2.8178E-1,0E0,2.8094372E-1,2.575773E-1,4.545126E-1,0E0,0E0,3.4916568E-1,3.6896086E-1,9.953675E-1,0E0,1.318768E0,6.677939E-1,5.473385E-1,0E0,0E0,0E0,2.3094797E-1,0E0,2.338618E-1,1.4466844E-1,0E0,3.504429E-1,1.24928355E-1,0E0,2.0671967E-1,0E0,3.997774E-1,1.1769301E-1,0E0,0E0,0E0,0E0,0E0,9.8199606E-2,1.6318076E0,4.3961525E-1,5.9841406E-1,1.4105142E0,5.716344E-1,0E0,0E0,2.5776482E-1,9.244442E-2,0E0,7.4010134E-2,2.847164E-1,0E0,3.1094888E-1,0E0,1.975565E-1,2.6717353E-1,2.2447526E-2,4.3176967E-1,7.392566E-1,0E0,0E0,0E0,1.2745273E-1,0E0,1.498723E-1,0E0,4.611646E-1,0E0,2.1072948E-1,3.7982416E-1,4.9792504E-1,7.766811E-1,8.88206E-1,2.5089264E-1,8.974674E-1,3.7174225E-2,9.312105E-2,0E0,0E0,1.6052091E-1,0E0,1.721955E-1,0E0,0E0,0E0,0E0,1.9728565E-1,8.357477E-2,0E0,0E0,0E0,0E0,1.3146302E-1,0E0,0E0,0E0,7.7320874E-2,0E0,0E0,0E0,0E0,0E0,0E0,0E0,0E0,0E0,0E0,0E0,0E0,0E0,0E0,0E0,0E0,0E0,0E0,0E0,0E0,0E0,0E0,0E0,0E0,0E0,0E0,0E0,0E0,0E0,0E0,0E0,0E0,0E0,0E0],"parents":[2147483647,0,0,1,1,2,2,3,3,4,4,5,5,6,6,7,7,8,8,9,9,10,10,11,11,13,13,14,14,15,15,16,16,17,17,18,18,19,19,20,20,21,21,22,22,23,23,24,24,26,26,27,27,28,28,31,31,32,32,33,33,35,35,36,36,37,37,41,41,43,43,44,44,46,46,47,47,49,49,51,51,52,52,58,58,59,59,60,60,61,61,62,62,63,63,66,66,67,67,69,69,70,70,72,72,74,74,75,75,76,76,77,77,78,78,82,82,84,84,86,86,88,88,89,89,90,90,91,91,92,92,93,93,94,94,95,95,96,96,99,99,101,101,106,106,107,107,112,112,116,116],"right_children":[2,4,6,8,10,12,14,16,18,20,22,24,-1,26,28,30,32,34,36,38,40,42,44,46,48,-1,50,52,54,-1,-1,56,58,60,-1,62,64,66,-1,-1,-1,68,-1,70,72,-1,74,76,-1,78,-1,80,82,-1,-1,-1,-1,-1,84,86,88,90,92,94,-1,-1,96,98,-1,100,102,-1,104,-1,106,108,110,112,114,-1,-1,-1,116,-1,118,-1,120,-1,122,124,126,128,130,132,134,136,138,-1,-1,140,-1,142,-1,-1,-1,-1,144,146,-1,-1,-1,-1,148,-1,-1,-1,150,-1,-1,-1,-1,-1,-1,-1,-1,-1,-1,-1,-1,-1,-1,-1,-1,-1,-1,-1,-1,-1,-1,-1,-1,-1,-1,-1,-1,-1,-1,-1,-1,-1,-1],"split_conditions":[1.77E0,1.9177489E0,1.0796179E0,7.3913044E-1,7.953564E-1,3.339275E-1,2.1E-1,5.45997E-1,8.1392795E-1,1.4553255E0,1.7765459E0,7.5166225E-1,-3.2587603E-2,7.61903E-1,1.3131568E0,1.8181819E-1,7.5446427E-1,8.4942216E-1,5E-1,1.4341239E0,3.2381687E-1,1.2232625E0,1.2795031E0,1.4079174E0,2.3300971E-1,-1.3706847E-2,1.2007927E0,8.5734636E-1,3.2051283E-1,3.1514443E-2,1.4568552E-2,2.5275332E-1,1.6475096E-1,7.5446427E-1,6.4015924E-3,1.2758621E0,1.6043011E0,2.1306667E-1,5.3762463E-3,-2.0154982E-3,1.2239167E-2,1.0939268E0,5.9809827E-4,3.324515E-1,7.5766224E-1,-2.7534625E-2,6.2084156E-1,1.931677E0,-1.7621484E-2,1.8139293E0,-8.2490025E-3,1.4615384E0,1.0312698E0,-9.356893E-3,-2.8119052E-2,1.9611514E-3,-1.3818818E-2,2.2323204E-3,9.2E-1,5E-1,8.148148E-1,1.2542695E0,1.0048306E0,1.2166513E0,6.0176603E-3,6.4836033E-3,1.3442005E0,1E-1,9.131021E-3,1.0227586E0,2.3883495E0,2.5127705E-3,1.3756777E0,-6.19959E-3,1.3428543E0,1.7763975E0,6.362199E-1,8.399824E-1,1.3324594E0,-2.404712E-2,-4.952089E-3,-1.623267E-4,1.1055901E0,8.457607E-3,6.840245E-1,-2.3270927E-2,2.5524476E-1,-2.2791682E-2,1.2795031E0,6.336927E-1,1.5644699E0,1.2546583E0,1.1658909E0,1.1331155E0,8.182354E-1,1.0389248E0,1.3476855E0,1.3477787E-2,2.3339855E-2,9.3843544E-1,1.4392403E-2,9.238965E-1,-4.1101333E-3,2.845752E-3,-1.2390564E-2,-8.76918E-3,1.0395148E0,8E-1,4.0878174E-3,-7.088072E-3,-1.4740131E-2,8.461286E-3,1.0030622E0,-8.247474E-3,1.305069E-2,-2.3221443E-3,1.2186048E0,2.295942E-2,1.2538344E-2,1.2571754E-2,-4.202766E-3,-2.607866E-3,-1.4546773E-2,-1.888111E-2,-1.7200792E-3,1.0125357E-2,-9.170928E-3,1.3878465E-2,-1.1229458E-3,1.5622E-2,-1.066958E-3,-1.4297105E-2,-4.9086637E-3,-1.2084115E-2,1.0131903E-2,2.6729394E-2,1.4901392E-2,1.6770056E-2,2.4374269E-2,9.723913E-3,4.0391792E-4,1.2993835E-2,3.0752993E-3,-2.489877E-2,-1.7403176E-2,-1.1540875E-2,-4.558394E-3,-1.0628418E-2,-1.1364871E-3,-1.5761973E-2,-5.9543173E-3],"split_indices":[4,3,3,4,21,0,5,2,22,27,1,22,0,22,2,4,1,23,7,22,0,21,4,16,6,0,33,22,0,0,0,0,0,1,0,10,9,0,0,0,0,31,0,0,33,0,21,10,0,1,0,13,2,0,0,0,0,0,3,1,3,3,22,28,0,0,2,12,0,21,16,0,22,0,2,10,33,21,21,0,0,0,9,0,22,0,0,0,4,23,4,4,28,31,34,30,2,0,0,21,0,4,0,0,0,0,21,34,0,0,0,0,34,0,0,0,22,0,0,0,0,0,0,0,0,0,0,0,0,0,0,0,0,0,0,0,0,0,0,0,0,0,0,0,0,0,0,0,0,0,0],"split_type":[0,0,0,0,0,0,0,0,0,0,0,0,0,0,0,0,0,0,0,0,0,0,0,0,0,0,0,0,0,0,0,0,0,0,0,0,0,0,0,0,0,0,0,0,0,0,0,0,0,0,0,0,0,0,0,0,0,0,0,0,0,0,0,0,0,0,0,0,0,0,0,0,0,0,0,0,0,0,0,0,0,0,0,0,0,0,0,0,0,0,0,0,0,0,0,0,0,0,0,0,0,0,0,0,0,0,0,0,0,0,0,0,0,0,0,0,0,0,0,0,0,0,0,0,0,0,0,0,0,0,0,0,0,0,0,0,0,0,0,0,0,0,0,0,0,0,0,0,0,0,0],"sum_hessian":[8.4767114E2,5.841244E2,2.6354672E2,3.288899E2,2.5523451E2,1.5954697E2,1.0399975E2,5.906406E1,2.6982584E2,1.331501E2,1.2208442E2,1.4385071E2,1.5696254E1,5.38784E1,5.0121353E1,1.1481752E1,4.758231E1,6.642971E1,2.0339612E2,1.177791E2,1.53709955E1,4.1649475E1,8.043495E1,9.7193596E1,4.6657112E1,9.359044E0,4.4519356E1,3.4523438E1,1.5597915E1,5.9970274E0,5.4847245E0,1.278591E1,3.47964E1,6.008293E1,6.3467784E0,1.4208383E2,6.131228E1,1.1093138E2,6.8477197E0,7.959698E0,7.411298E0,3.4686085E1,6.9633913E0,6.158507E1,1.8849876E1,1.961031E1,7.758328E1,3.688261E1,9.774504E0,3.642608E1,8.093278E0,1.1649566E1,2.2873873E1,7.0975003E0,8.500414E0,7.5967298E0,5.1891804E0,5.3074794E0,2.9488918E1,2.1297892E1,3.8785038E1,2.5727913E1,1.1635593E2,5.153283E1,9.779452E0,6.2203627E0,1.0471101E2,2.641264E1,8.273444E0,3.071394E1,3.0871132E1,6.5462503E0,1.2303626E1,6.1645956E0,7.141869E1,2.5595732E1,1.1286879E1,2.0500687E1,1.5925389E1,6.1601744E0,5.4893913E0,5.4385834E0,1.743529E1,5.523296E0,2.3965624E1,6.4436855E0,1.4854207E1,2.0734095E1,1.8050945E1,1.4151147E1,1.1576765E1,6.913344E1,4.722248E1,3.5207127E1,1.63257E1,5.5805412E1,4.89056E1,9.236504E0,1.7176136E1,2.4507929E1,6.20601E0,2.1795193E1,9.075939E0,5.154242E0,7.1493845E0,5.7741714E0,6.5644516E1,2.0461887E1,5.133843E0,5.059199E0,6.22768E0,6.1766467E0,1.432404E1,5.4919376E0,1.0433452E1,6.2402067E0,1.1195084E1,1.2152357E1,1.1813267E1,8.10328E0,6.750927E0,5.838617E0,1.2212328E1,9.09576E0,5.0553865E0,6.560003E0,5.0167627E0,9.053556E0,6.0079887E1,3.730965E1,9.912833E0,2.3003963E1,1.2203164E1,7.3567457E0,8.968955E0,5.078532E1,5.020093E0,3.5460987E1,1.3444616E1,1.8318506E1,6.189422E0,5.516252E0,1.627894E1,2.6633562E1,3.901096E1,8.931032E0,1.1530856E1,7.409834E0,6.9142065E0,5.37039E0,5.824693E0],"tree_param":{"num_deleted":"0","num_feature":"40","num_nodes":"151","size_leaf_vector":"1"}},{"base_weights":[3.6921485E-3,5.043888E-2,-4.8323366E-1,1.2506758E-1,-6.06457E-2,-3.9022457E-2,-4.0436512E-1,-7.7769116E-2,1.512741E-1,1.7511596E-1,-9.468241E-2,-5.429255E-1,-2.5287443E-1,1.794465E-2,-2.0076221E-1,2.3515324E-1,6.6409715E-2,-5.425431E-2,2.3259577E-1,-2.1245448E-1,-3.636835E-2,-4.0671292E-1,-3.062496E-2,-1.9275782E-1,-2.7275775E-2,-5.041461E-1,-6.4251564E-2,2.4920622E-1,1.0156777E-2,1.3937027E-2,1.3309652E-1,-7.996182E-3,2.590598E-3,2.2335088E-2,1.6031185E-1,-9.909841E-2,-3.9059895E-1,7.485164E-2,-1.7055489E-1,-2.4529574E-2,-1.1876281E-2,-2.266503E-2,-1.1253678E-1,-3.126442E-2,-1.1614794E-2,1.3847136E-1,-1.7447542E-1,1.3971604E-1,2.8213137E-1,6.495862E-3,-6.784853E-2,5.648461E-2,-4.5420513E-2,1.943548E-2,1.1708211E-1,2.696793E-2,2.617466E-1,-1.8220565E-1,1.2157568E-1,-2.2729527E-2,-2.7235982E-1,1.5180697E-1,-2.4994077E-2,-3.5357738E-1,-9.244423E-2,-4.507557E-2,-1.5852349E-2,1.2373493E-2,-3.0456348E-3,-3.7543678E-1,-2.4999583E-2,2.824492E-1,1.1171026E-2,3.0043265E-1,1.01364665E-1,1.3379754E-3,-7.419976E-3,8.019992E-2,-9.456416E-3,1.4051759E-2,-1.3529319E-1,-2.7402185E-2,1.3853906E-1,6.010668E-3,-6.6293315E-3,1.2919319E-1,2.483396E-2,5.16012E-3,-2.1748155E-1,2.8052378E-1,-3.9032975E-3,-6.9237254E-3,-3.3363053E-1,-1.383768E-2,2.0784962E-1,-1.5456094E-2,3.5606593E-2,-1.6485424E-1,-4.30742E-1,-4.0070914E-2,-1.910814E-2,-1.4356159E-1,1.2362889E-2,-2.4597911E-2,-9.633954E-3,6.0636452E-3,-7.130825E-3,7.610533E-3,2.173759E-2,-1.2244134E-2,3.8632154E-3,2.143413E-2,1.3190957E-2,9.826499E-3,-1.2437495E-3,1.4398051E-3,8.362632E-3,-9.739521E-3,3.2228231E-3,2.1711665E-3,-9.251337E-3,-9.985287E-3,4.5502237E-3,7.7538574E-3,-2.3128171E-3,-5.7593075E-4,1.0978754E-2,-1.3001231E-2,-5.0966017E-4,3.8726998E-3,2.2907283E-2,-2.0202402E-2,-1.0200224E-2,8.100322E-3,-4.6599847E-3,-2.5064868E-3,1.2048548E-2,6.7562023E-3,-3.3489682E-3,-3.1190738E-3,-1.186369E-2,-1.0538626E-2,-2.3997469E-2,3.367588E-3,-1.01864375E-2,-4.50679E-3,-1.08775E-2],"categories":[],"categories_nodes":[],"categories_segments":[],"categories_sizes":[],"default_left":[0,0,0,0,0,0,0,0,0,0,0,0,0,0,0,0,0,0,0,0,0,0,0,0,0,0,0,0,0,0,0,0,0,0,0,0,0,0,0,0,0,0,0,0,0,0,0,0,0,0,0,0,0,0,0,0,0,0,0,0,0,0,0,0,0,0,0,0,0,0,0,0,0,0,0,0,0,0,0,0,0,0,0,0,0,0,0,0,0,0,0,0,0,0,0,0,0,0,0,0,0,0,0,0,0,0,0,0,0,0,0,0,0,0,0,0,0,0,0,0,0,0,0,0,0,0,0,0,0,0,0,0,0,0,0,0,0,0,0,0,0,0,0,0,0,0,0],"id":1,"left_children":[1,3,5,7,9,-1,11,13,15,17,19,21,23,-1,25,27,29,31,33,35,37,39,-1,41,-1,43,45,47,49,51,53,-1,-1,-1,55,57,59,61,63,-1,-1,-1,65,-1,-1,67,69,71,73,-1,75,77,79,-1,81,83,85,87,89,-1,91,93,95,97,99,101,-1,-1,-1,103,105,107,109,111,113,-1,-1,115,-1,117,119,121,123,-1,-1,125,-1,-1,127,129,-1,-1,131,133,135,-1,137,139,141,143,-1,145,-1,-1,-1,-1,-1,-1,-1,-1,-1,-1,-1,-1,-1,-1,-1,-1,-1,-1,-1,-1,-1,-1,-1,-1,-1,-1,-1,-1,-1,-1,-1,-1,-1,-1,-1,-1,-1,-1,-1,-1,-1,-1,-1,-1,-1],"loss_changes":[2.616145E1,8.700506E0,2.044361E0,3.347556E0,3.4033313E0,0E0,1.576354E0,3.963738E0,3.9427586E0,7.19224E-1,2.5295956E0,1.4670944E-1,6.1388254E-1,0E0,2.3356738E0,8.804827E-1,9.7026837E-1,1.377419E-1,5.9456444E-1,2.4278512E0,3.718587E0,1.2610364E-1,0E0,6.8998253E-1,0E0,4.342947E-1,9.3093324E-1,9.0800476E-1,1.7192408E-1,3.9804065E-1,4.5479035E-1,0E0,0E0,0E0,4.492991E-1,1.4157077E0,2.3300457E-1,1.0523727E0,1.5804818E0,0E0,0E0,0E0,3.7803712E-1,0E0,0E0,3.3781537E-1,7.935585E-1,1.1479819E0,6.347408E-1,0E0,8.955279E-2,5.490502E-1,3.5431728E-1,0E0,3.647951E-1,2.4940081E-1,5.2900803E-1,5.822103E-1,7.0058966E-1,0E0,1.1011052E-1,7.1962893E-1,1.0485607E0,4.1537237E-1,1.205266E0,6.846966E-1,0E0,0E0,0E0,1.4648843E-1,2.9944307E-1,5.227139E-1,5.951982E-1,7.418709E-1,2.4509557E-1,0E0,0E0,3.7236124E-1,0E0,4.3976822E-1,2.4224436E-1,3.4239286E-1,3.1753373E-1,0E0,0E0,1.745867E-1,0E0,0E0,4.365573E-1,4.0186435E-1,0E0,0E0,3.0418634E-2,3.0057356E-1,5.05563E-1,0E0,5.252464E-1,6.915206E-2,1.4872694E-1,1.2310557E0,0E0,4.9563646E-2,0E0,0E0,0E0,0E0,0E0,0E0,0E0,0E0,0E0,0E0,0E0,0E0,0E0,0E0,0E0,0E0,0E0,0E0,0E0,0E0,0E0,0E0,0E0,0E0,0E0,0E0,0E0,0E0,0E0,0E0,0E0,0E0,0E0,0E0,0E0,0E0,0E0,0E0,0E0,0E0,0E0,0E0,0E0,0E0,0E0],"parents":[2147483647,0,0,1,1,2,2,3,3,4,4,6,6,7,7,8,8,9,9,10,10,11,11,12,12,14,14,15,15,16,16,17,17,18,18,19,19,20,20,21,21,23,23,25,25,26,26,27,27,28,28,29,29,30,30,34,34,35,35,36,36,37,37,38,38,42,42,45,45,46,46,47,47,48,48,50,50,51,51,52,52,54,54,55,55,56,56,57,57,58,58,60,60,61,61,62,62,63,63,64,64,65,65,69,69,70,70,71,71,72,72,73,73,74,74,77,77,79,79,80,80,81,81,82,82,85,85,88,88,89,89,92,92,93,93,94,94,96,96,97,97,98,98,99,99,101,101],"right_children":[2,4,6,8,10,-1,12,14,16,18,20,22,24,-1,26,28,30,32,34,36,38,40,-1,42,-1,44,46,48,50,52,54,-1,-1,-1,56,58,60,62,64,-1,-1,-1,66,-1,-1,68,70,72,74,-1,76,78,80,-1,82,84,86,88,90,-1,92,94,96,98,100,102,-1,-1,-1,104,106,108,110,112,114,-1,-1,116,-1,118,120,122,124,-1,-1,126,-1,-1,128,130,-1,-1,132,134,136,-1,138,140,142,144,-1,146,-1,-1,-1,-1,-1,-1,-1,-1,-1,-1,-1,-1,-1,-1,-1,-1,-1,-1,-1,-1,-1,-1,-1,-1,-1,-1,-1,-1,-1,-1,-1,-1,-1,-1,-1,-1,-1,-1,-1,-1,-1,-1,-1,-1,-1],"split_conditions":[1.77E0,8.066547E-1,6.260563E-1,9.72973E-1,7.3913044E-1,-3.9022457E-2,1.3429108E0,1.4545454E-1,1.3432266E0,6.821094E-1,1.022443E0,9.2702085E-1,3.5714287E-2,1.794465E-2,5.7142857E-2,1.4080619E0,2.826087E0,1.967742E0,6E-1,1.4345404E0,1.1951032E-1,9.4899505E-1,-3.062496E-2,7.401349E-1,-2.7275775E-2,6.8079185E-1,5.0531733E-1,4.9120346E-1,1.060241E0,9.6142995E-1,1.7957317E0,-7.996182E-3,2.590598E-3,2.2335088E-2,1.3903078E0,1.9177489E0,9.71926E-1,1.0807157E0,8.2378167E-1,-2.4529574E-2,-1.1876281E-2,-2.266503E-2,1.2674884E0,-3.126442E-2,-1.1614794E-2,6.832298E-1,8.6356854E-1,5.2912575E-1,7.83484E-1,6.495862E-3,2.279503E0,1.440603E0,1.3451374E0,1.943548E-2,3.0372635E-1,1.0545843E0,1.2310232E0,7.205732E-1,1.3333334E-1,-2.2729527E-2,5.865922E-1,1.1654135E0,2.05679E0,8.213325E-1,1.3243926E0,1.819827E0,-1.5852349E-2,1.2373493E-2,-3.0456348E-3,9.2E-1,1.062638E0,4.5454547E-1,8.3826286E-1,1.3602484E0,9.180158E-1,1.3379754E-3,-7.419976E-3,2.003413E0,-9.456416E-3,1.3434404E0,7.6397514E-1,2.9254658E0,1.4025929E0,6.010668E-3,-6.6293315E-3,1.0598413E0,2.483396E-2,5.16012E-3,1.0048306E0,6.7714566E-1,-3.9032975E-3,-6.9237254E-3,1.0351932E0,9.4536585E-1,8.363756E-1,-1.5456094E-2,1.3964804E0,1.2E0,9.777778E-1,1.1685239E0,-1.910814E-2,9.116141E-1,1.2362889E-2,-2.4597911E-2,-9.633954E-3,6.0636452E-3,-7.130825E-3,7.610533E-3,2.173759E-2,-1.2244134E-2,3.8632154E-3,2.143413E-2,1.3190957E-2,9.826499E-3,-1.2437495E-3,1.4398051E-3,8.362632E-3,-9.739521E-3,3.2228231E-3,2.1711665E-3,-9.251337E-3,-9.985287E-3,4.5502237E-3,7.7538574E-3,-2.3128171E-3,-5.7593075E-4,1.0978754E-2,-1.3001231E-2,-5.0966017E-4,3.8726998E-3,2.2907283E-2,-2.0202402E-2,-1.0200224E-2,8.100322E-3,-4.6599847E-3,-2.5064868E-3,1.2048548E-2,6.7562023E-3,-3.3489682E-3,-3.1190738E-3,-1.186369E-2,-1.0538626E-2,-2.3997469E-2,3.367588E-3,-1.01864375E-2,-4.50679E-3,-1.08775E-2],"split_indices":[4,21,22,3,4,0,2,4,2,34,22,21,13,0,11,22,3,3,4,4,24,22,0,22,0,2,27,34,10,34,1,0,0,0,1,3,22,2,34,0,0,0,22,0,0,3,2,22,21,0,15,27,2,0,33,33,27,3,7,0,5,16,3,30,2,1,0,0,0,3,22,11,2,16,27,0,0,15,0,2,4,15,22,0,0,24,0,0,22,23,0,0,2,27,21,0,27,4,6,21,0,22,0,0,0,0,0,0,0,0,0,0,0,0,0,0,0,0,0,0,0,0,0,0,0,0,0,0,0,0,0,0,0,0,0,0,0,0,0,0,0,0,0,0,0,0,0],"split_type":[0,0,0,0,0,0,0,0,0,0,0,0,0,0,0,0,0,0,0,0,0,0,0,0,0,0,0,0,0,0,0,0,0,0,0,0,0,0,0,0,0,0,0,0,0,0,0,0,0,0,0,0,0,0,0,0,0,0,0,0,0,0,0,0,0,0,0,0,0,0,0,0,0,0,0,0,0,0,0,0,0,0,0,0,0,0,0,0,0,0,0,0,0,0,0,0,0,0,0,0,0,0,0,0,0,0,0,0,0,0,0,0,0,0,0,0,0,0,0,0,0,0,0,0,0,0,0,0,0,0,0,0,0,0,0,0,0,0,0,0,0,0,0,0,0,0,0],"sum_hessian":[1.1472672E3,1.047591E3,9.967631E1,6.2654224E2,4.2104868E2,1.9037615E1,8.0638695E1,7.14622E1,5.550801E2,5.2594955E1,3.6845374E2,4.0767227E1,3.9871468E1,1.528344E1,5.6178753E1,2.7826987E2,2.768102E2,1.0550368E1,4.2044586E1,1.21144646E2,2.4730908E2,1.6097353E1,2.4669872E1,3.445262E1,5.418844E0,1.6597984E1,3.958077E1,2.6180997E2,1.6459885E1,1.5559157E2,1.2121863E2,5.030712E0,5.519656E0,9.304551E0,3.2740036E1,7.498611E1,4.6158535E1,1.3546863E2,1.11840454E2,9.491853E0,6.6055E0,7.0158434E0,2.7436779E1,1.0582205E1,6.0157795E0,1.3850589E1,2.573018E1,6.1740364E1,2.0006961E2,6.2298265E0,1.0230058E1,9.065693E1,6.493464E1,5.7746363E0,1.1544399E2,1.4692049E1,1.8047987E1,5.459835E1,2.0387756E1,2.81039E1,1.8054634E1,7.620996E1,5.9258663E1,3.2399048E1,7.944141E1,2.1548908E1,5.887871E0,8.799139E0,5.0514503E0,1.0330179E1,1.5400002E1,2.868831E1,3.3052055E1,1.8107509E2,1.899452E1,5.0116324E0,5.218425E0,8.328844E1,7.3684983E0,3.9584E1,2.5350637E1,1.4891603E1,1.0055239E2,9.428499E0,5.2635493E0,1.2528876E1,5.519111E0,5.794114E0,4.8804234E1,1.1125146E1,9.262611E0,6.6919055E0,1.1362729E1,1.9456295E1,5.6753666E1,9.696308E0,4.9562355E1,1.0312922E1,2.2086126E1,6.824319E1,1.119822E1,1.6499275E1,5.049633E0,5.275074E0,5.055105E0,6.8500085E0,8.549993E0,1.654208E1,1.2146231E1,6.2261314E0,2.6825924E1,3.7835743E1,1.4323935E2,1.0512733E1,8.481787E0,5.3203217E1,3.0085217E1,7.1392727E0,3.244473E1,5.5464525E0,1.9804184E1,5.785713E0,9.10589E0,9.244035E1,8.1120405E0,5.2413664E0,7.28751E0,4.0282417E1,8.521816E0,5.860767E0,5.264379E0,5.991113E0,5.3716154E0,5.7265334E0,1.3729762E1,6.398984E0,5.035468E1,2.499643E1,2.4565928E1,5.041149E0,5.271773E0,5.0033283E0,1.7082798E1,4.155532E1,2.6687862E1,1.0869112E1,5.6301622E0],"tree_param":{"num_deleted":"0","num_feature":"40","num_nodes":"147","size_leaf_vector":"1"}},{"base_weights":[-3.1657992E-3,1.02379225E-1,-1.7624617E-1,1.1006685E-1,-2.3013227E-2,-3.1408064E-2,-3.9012945E-1,5.0658673E-2,1.7715563E-1,1.953581E-1,-9.6771635E-2,-3.486513E-2,-3.2959768E-1,-1.14167444E-1,8.31002E-2,1.9625229E-1,-2.5902554E-1,7.189947E-3,3.4166932E-1,-1.9247812E-1,-8.013466E-3,-2.1112666E-1,-4.673977E-1,1.5847546E-1,-2.992252E-1,2.459144E-1,3.1106528E-2,2.2510862E-1,6.6965874E-3,-3.1977785E-3,-1.954007E-2,-1.4694647E-1,1.5220608E-2,2.8241878E-2,2.2718044E-1,-9.262476E-2,-3.818725E-1,-2.360432E-1,5.325762E-2,-3.2727322E-1,-7.0996016E-2,-3.3402982E-1,-5.7955205E-1,2.8181306E-1,-1.8567786E-3,-5.555397E-1,-2.4598252E-2,4.695517E-1,1.1047788E-1,1.2344547E-1,7.6339236E-3,2.1205145E-1,5.0309753E-1,-1.6451308E-1,7.828273E-2,4.2593335E-3,-2.957693E-1,3.834181E-1,-1.1786416E-3,-1.7405728E-1,1.8394722E-2,-3.5641242E-3,-4.6058056E-1,-1.3081739E-3,-3.151135E-1,1.5860638E-1,-1.1829234E-1,-9.4905175E-2,-4.131818E-1,7.108607E-2,-2.5855207E-1,-2.335179E-2,-1.369561E-1,-2.2263225E-2,-3.3507857E-2,1.7820066E-2,6.0167694E-3,-3.4574118E-2,-8.799313E-3,8.626085E-3,-1.5655707E-1,1.0865836E-2,2.581406E-2,2.6866794E-1,-8.418458E-2,-2.0716137E-3,2.6029244E-1,-3.069885E-3,1.2431939E-2,1.2615976E-1,2.623268E-1,1.5913535E-2,3.0046744E-2,-1.4869164E-2,-1.7188791E-3,-6.3150222E-3,1.4407155E-1,-8.024409E-3,-1.9079473E-2,7.2539086E-3,2.5444044E-2,-2.544046E-1,-7.569579E-2,7.200159E-3,-2.5390616E-2,-2.7059738E-2,-8.7409485E-3,-6.900823E-3,-1.9267058E-2,2.5912866E-1,8.45124E-2,-2.0578321E-2,-1.954224E-2,-1.3018923E-2,3.0602037E-3,-2.2881024E-1,-5.260878E-1,-7.096381E-3,2.5917986E-1,-1.7213263E-2,-8.101941E-3,-1.07521685E-2,3.9304397E-4,-1.532349E-2,1.7538448E-4,7.1423734E-4,1.7051091E-2,2.8711357E-3,-9.817696E-3,3.4262754E-3,-6.7598596E-3,1.9918812E-2,7.6676034E-3,-6.2711076E-3,1.4417422E-3,1.1743497E-2,2.2169359E-3,1.4666274E-2,2.2830935E-3,1.1248268E-2,-3.5621997E-3,-1.6968848E-2,-1.7770836E-3,-4.700291E-4,-8.304981E-3,-5.073684E-3,2.9000405E-3,6.4999186E-3,1.7836556E-2,7.385877E-3,-5.143023E-3,3.5218315E-3,-1.0388932E-2,-1.5733644E-2,-3.717177E-3,-2.9278798E-2,-1.5769003E-2,3.0857217E-3,2.1460714E-2],"categories":[],"categories_nodes":[],"categories_segments":[],"categories_sizes":[],"default_left":[0,0,0,0,0,0,0,0,0,0,0,0,0,0,0,0,0,0,0,0,0,0,0,0,0,0,0,0,0,0,0,0,0,0,0,0,0,0,0,0,0,0,0,0,0,0,0,0,0,0,0,0,0,0,0,0,0,0,0,0,0,0,0,0,0,0,0,0,0,0,0,0,0,0,0,0,0,0,0,0,0,0,0,0,0,0,0,0,0,0,0,0,0,0,0,0,0,0,0,0,0,0,0,0,0,0,0,0,0,0,0,0,0,0,0,0,0,0,0,0,0,0,0,0,0,0,0,0,0,0,0,0,0,0,0,0,0,0,0,0,0,0,0,0,0,0,0,0,0,0,0,0,0,0,0,0,0,0,0],"id":2,"left_children":[1,3,5,7,-1,9,11,13,15,17,19,-1,21,23,25,27,29,31,33,35,37,39,41,43,45,47,49,51,53,-1,-1,55,-1,-1,57,59,61,63,65,67,69,71,73,75,-1,77,79,81,83,85,87,89,91,93,95,-1,97,99,-1,101,103,-1,105,-1,107,109,111,113,115,117,119,-1,121,-1,-1,-1,-1,-1,-1,-1,123,-1,-1,125,127,129,131,133,-1,135,137,-1,-1,-1,-1,-1,139,-1,-1,-1,-1,141,143,-1,145,-1,-1,-1,-1,147,149,151,-1,-1,-1,153,155,-1,157,-1,-1,-1,-1,-1,-1,-1,-1,-1,-1,-1,-1,-1,-1,-1,-1,-1,-1,-1,-1,-1,-1,-1,-1,-1,-1,-1,-1,-1,-1,-1,-1,-1,-1,-1,-1,-1,-1,-1,-1],"loss_changes":[2.0368166E1,3.046588E0,1.3071618E1,2.71762E0,0E0,3.7676136E0,2.9393425E0,1.9570632E0,2.7236729E0,1.564606E0,1.6718458E0,0E0,2.2567492E0,3.0908103E0,2.5734527E0,1.6831846E0,3.320707E-1,1.2321931E0,6.8928456E-1,1.7563603E0,1.4551303E0,1.2691426E0,7.917633E-1,6.146352E-1,2.5399194E0,2.1790748E0,5.024386E-1,8.634453E-1,5.2423906E-1,0E0,0E0,6.381513E-1,0E0,0E0,9.031583E-1,5.759752E-1,7.5888443E-1,3.5770178E-1,1.50429E0,8.219919E-1,1.0114064E0,7.8667736E-1,1.2043476E-1,1.434952E-1,0E0,8.441038E-1,5.097693E-1,2.1163654E-1,1.4755259E0,8.0794054E-1,4.8120478E-1,1.0767326E0,1.2390375E-2,2.0805839E-1,4.2330128E-1,0E0,6.687492E-2,3.4837604E-1,0E0,2.7033913E-1,1.5606824E-1,0E0,4.9639845E-1,0E0,1.4489555E-1,3.6057603E-1,8.400799E-1,3.5027346E-1,5.290742E-1,9.177166E-1,7.886982E-2,0E0,1.6556707E-1,0E0,0E0,0E0,0E0,0E0,0E0,0E0,2.804188E-1,0E0,0E0,4.7860909E-1,3.5935664E-1,2.4901412E-1,2.7109826E-1,7.0357156E-1,0E0,8.5077107E-1,1.069212E0,0E0,0E0,0E0,0E0,0E0,4.2084768E-1,0E0,0E0,0E0,0E0,3.5514247E-1,1.0571008E-1,0E0,1.4165655E-1,0E0,0E0,0E0,0E0,2.2215414E-1,3.8287154E-1,4.3201905E-1,0E0,0E0,0E0,1.5723228E-1,4.8209667E-2,0E0,3.774358E-1,0E0,0E0,0E0,0E0,0E0,0E0,0E0,0E0,0E0,0E0,0E0,0E0,0E0,0E0,0E0,0E0,0E0,0E0,0E0,0E0,0E0,0E0,0E0,0E0,0E0,0E0,0E0,0E0,0E0,0E0,0E0,0E0,0E0,0E0,0E0,0E0,0E0,0E0,0E0,0E0],"parents":[2147483647,0,0,1,1,2,2,3,3,5,5,6,6,7,7,8,8,9,9,10,10,12,12,13,13,14,14,15,15,16,16,17,17,18,18,19,19,20,20,21,21,22,22,23,23,24,24,25,25,26,26,27,27,28,28,31,31,34,34,35,35,36,36,37,37,38,38,39,39,40,40,41,41,42,42,43,43,45,45,46,46,47,47,48,48,49,49,50,50,51,51,52,52,53,53,54,54,56,56,57,57,59,59,60,60,62,62,64,64,65,65,66,66,67,67,68,68,69,69,70,70,72,72,80,80,83,83,84,84,85,85,86,86,87,87,89,89,90,90,96,96,101,101,102,102,104,104,109,109,110,110,111,111,115,115,116,116,118,118],"right_children":[2,4,6,8,-1,10,12,14,16,18,20,-1,22,24,26,28,30,32,34,36,38,40,42,44,46,48,50,52,54,-1,-1,56,-1,-1,58,60,62,64,66,68,70,72,74,76,-1,78,80,82,84,86,88,90,92,94,96,-1,98,100,-1,102,104,-1,106,-1,108,110,112,114,116,118,120,-1,122,-1,-1,-1,-1,-1,-1,-1,124,-1,-1,126,128,130,132,134,-1,136,138,-1,-1,-1,-1,-1,140,-1,-1,-1,-1,142,144,-1,146,-1,-1,-1,-1,148,150,152,-1,-1,-1,154,156,-1,158,-1,-1,-1,-1,-1,-1,-1,-1,-1,-1,-1,-1,-1,-1,-1,-1,-1,-1,-1,-1,-1,-1,-1,-1,-1,-1,-1,-1,-1,-1,-1,-1,-1,-1,-1,-1,-1,-1,-1,-1],"split_conditions":[7.953564E-1,1.77E0,1.4016064E0,1.8181819E-1,-2.3013227E-2,7.0235544E-1,7.401349E-1,1.3469722E0,1.4444392E0,1.5897436E0,9.813846E-1,-3.486513E-2,1.3243213E-1,1.9675203E-1,1.7957317E0,7.5E-1,1.1769661E0,1.7265861E0,9.086053E-1,3.4992707E-1,1.438282E0,2.04E0,9.8678595E-1,4.5588234E-1,1.1552795E0,6.6607654E-1,9.6506834E-1,3E0,6.028209E-1,-3.1977785E-3,-1.954007E-2,9.8665005E-1,1.5220608E-2,2.8241878E-2,2.828561E-1,1.0076861E0,2.3546667E-1,1.0001091E0,3.252818E-1,1.5589225E0,3.272727E-1,1.0437367E0,1.6635071E0,5.576923E-1,-1.8567786E-3,7.19568E-1,7.041683E-2,7.039212E-1,1.0383042E0,4.5725095E-1,7.754451E-1,1.2773292E0,7.0235544E-1,6.8493485E-1,1.8757764E0,4.2593335E-3,1.9047619E0,1.3492647E0,-1.1786416E-3,9.561999E-1,1.0076861E0,-3.5641242E-3,8.860051E-1,-1.3081739E-3,8.769497E-1,1E0,3.5714287E-2,1.0381409E0,2.0695172E-1,3.2253087E-1,1.3447725E0,-2.335179E-2,1.0934095E0,-2.2263225E-2,-3.3507857E-2,1.7820066E-2,6.0167694E-3,-3.4574118E-2,-8.799313E-3,8.626085E-3,1.1535836E0,1.0865836E-2,2.581406E-2,7.681445E-1,1.7391304E0,4.2390826E-1,9.4463533E-1,3.272727E-1,1.2431939E-2,5.182047E-1,1.1005282E0,1.5913535E-2,3.0046744E-2,-1.4869164E-2,-1.7188791E-3,-6.3150222E-3,1.0459158E0,-8.024409E-3,-1.9079473E-2,7.2539086E-3,2.5444044E-2,7.0868945E-1,7.95033E-1,7.200159E-3,1.3442005E0,-2.7059738E-2,-8.7409485E-3,-6.900823E-3,-1.9267058E-2,7.8395927E-1,9.176868E-1,1.059082E0,-1.954224E-2,-1.3018923E-2,3.0602037E-3,1.022443E0,1.3532647E0,-7.096381E-3,1.825532E0,-1.7213263E-2,-8.101941E-3,-1.07521685E-2,3.9304397E-4,-1.532349E-2,1.7538448E-4,7.1423734E-4,1.7051091E-2,2.8711357E-3,-9.817696E-3,3.4262754E-3,-6.7598596E-3,1.9918812E-2,7.6676034E-3,-6.2711076E-3,1.4417422E-3,1.1743497E-2,2.2169359E-3,1.4666274E-2,2.2830935E-3,1.1248268E-2,-3.5621997E-3,-1.6968848E-2,-1.7770836E-3,-4.700291E-4,-8.304981E-3,-5.073684E-3,2.9000405E-3,6.4999186E-3,1.7836556E-2,7.385877E-3,-5.143023E-3,3.5218315E-3,-1.0388932E-2,-1.5733644E-2,-3.717177E-3,-2.9278798E-2,-1.5769003E-2,3.0857217E-3,2.1460714E-2],"split_indices":[21,4,4,11,0,4,22,15,27,11,34,0,23,4,1,14,22,9,22,31,1,4,21,1,10,21,22,39,21,0,0,27,0,0,0,28,0,21,0,4,0,22,4,10,0,2,33,27,2,34,21,1,4,30,15,0,13,9,0,22,22,0,34,0,4,4,13,22,0,0,2,0,22,0,0,0,0,0,0,0,15,0,0,27,15,33,22,0,0,22,30,0,0,0,0,0,34,0,0,0,0,23,34,0,2,0,0,0,0,29,30,21,0,0,0,22,21,0,1,0,0,0,0,0,0,0,0,0,0,0,0,0,0,0,0,0,0,0,0,0,0,0,0,0,0,0,0,0,0,0,0,0,0,0,0,0,0,0,0],"split_type":[0,0,0,0,0,0,0,0,0,0,0,0,0,0,0,0,0,0,0,0,0,0,0,0,0,0,0,0,0,0,0,0,0,0,0,0,0,0,0,0,0,0,0,0,0,0,0,0,0,0,0,0,0,0,0,0,0,0,0,0,0,0,0,0,0,0,0,0,0,0,0,0,0,0,0,0,0,0,0,0,0,0,0,0,0,0,0,0,0,0,0,0,0,0,0,0,0,0,0,0,0,0,0,0,0,0,0,0,0,0,0,0,0,0,0,0,0,0,0,0,0,0,0,0,0,0,0,0,0,0,0,0,0,0,0,0,0,0,0,0,0,0,0,0,0,0,0,0,0,0,0,0,0,0,0,0,0,0,0],"sum_hessian":[1.1129905E3,6.9163654E2,4.213539E2,6.831073E2,8.529195E0,2.5191098E2,1.6944295E2,3.632228E2,3.198845E2,5.5919697E1,1.9599129E2,2.6162046E1,1.432809E2,5.9319283E1,3.0390353E2,3.0699393E2,1.2890577E1,2.4919863E1,3.0999834E1,9.374211E1,1.0224917E2,7.840541E1,6.487549E1,2.404208E1,3.5277203E1,7.2656265E1,2.3124725E2,2.6627145E2,4.072246E1,5.795999E0,7.0945783E0,1.6742811E1,8.177052E0,9.1773205E0,2.1822514E1,6.235571E1,3.1386402E1,2.1051256E1,8.119791E1,4.2141315E1,3.62641E1,3.1452356E1,3.3423134E1,1.4474727E1,9.567353E0,1.771788E1,1.7559324E1,2.6474213E1,4.6182053E1,4.6005795E1,1.8524146E2,2.5600946E2,1.0261992E1,1.1623911E1,2.9098553E1,6.7077265E0,1.0035085E1,1.3119214E1,8.703299E0,3.564349E1,2.671222E1,6.730968E0,2.4655434E1,6.124808E0,1.4926449E1,5.0352135E1,3.0845776E1,1.1942801E1,3.0198513E1,2.0986713E1,1.5277385E1,1.7960724E1,1.3491632E1,1.5848346E1,1.7574787E1,9.0755205E0,5.3992066E0,1.2440357E1,5.2775235E0,6.9179325E0,1.0641391E1,5.021241E0,2.1452972E1,2.5268084E1,2.091397E1,2.4509947E1,2.149585E1,1.7830942E2,6.9320383E0,9.581911E1,1.6019037E2,5.024031E0,5.2379613E0,5.1156144E0,6.5082965E0,6.8566566E0,2.2241896E1,5.009112E0,5.0259733E0,5.2680025E0,7.8512115E0,1.8745039E1,1.689845E1,6.3130155E0,2.0399204E1,1.8533276E1,6.122159E0,5.0803385E0,9.84611E0,2.0305988E1,3.0046146E1,2.3497192E1,7.3485827E0,5.4732842E0,6.469517E0,1.2618882E1,1.7579632E1,9.956525E0,1.1030189E1,6.731835E0,8.54555E0,8.450225E0,5.0414076E0,5.0226445E0,5.6187463E0,5.8606234E0,1.940746E1,9.459708E0,1.1454262E1,1.633348E1,8.176465E0,8.192409E0,1.3303441E1,3.627321E1,1.4203621E2,4.0344933E1,5.547417E1,1.398307E2,2.0359663E1,1.6135128E1,6.1067677E0,1.310605E1,5.63899E0,1.0386083E1,6.512369E0,1.055364E1,9.845563E0,9.74502E0,1.0560968E1,2.262564E1,7.420506E0,1.6230042E1,7.26715E0,7.443913E0,5.1749687E0,1.2321791E1,5.257841E0,5.7340446E0,5.296144E0],"tree_param":{"num_deleted":"0","num_feature":"40","num_nodes":"159","size_leaf_vector":"1"}},{"base_weights":[-2.2112152E-3,1.204472E-1,-1.9034727E-1,1.2875041E-1,-2.5726045E-2,-3.4481384E-2,-4.4051337E-1,1.3926387E-1,-2.1660201E-1,3.0882055E-1,-1.1643061E-1,-4.7206414E-1,-4.4394564E-3,1.08655795E-1,2.4406785E-1,-1.5491624E-2,-3.8980287E-3,-3.9020174E-3,3.8952887E-1,-3.0060622E-1,-5.869348E-2,-3.4534255E-1,-5.1568496E-1,-6.171731E-3,4.812551E-3,2.1495113E-1,3.1569753E-2,3.146779E-1,9.534542E-2,5.823793E-3,4.2698908E-1,-2.1556754E-1,-2.7518395E-2,-1.8541795E-1,6.7779245E-3,-2.0461729E-1,-2.206306E-2,-5.420344E-1,-2.806705E-1,9.196472E-2,3.6783776E-1,-9.574301E-2,1.5870309E-1,3.4643963E-1,7.6851495E-2,1.3952096E-1,-6.7878473E-3,5.2083343E-1,2.4792013E-1,-3.3249456E-1,-7.122189E-2,-6.0980264E-2,-4.271468E-1,1.0022864E-1,-9.136134E-2,-1.33660985E-2,-1.3465545E-3,-1.576655E-2,-5.6874335E-1,-1.7186457E-2,-7.6011256E-3,1.840596E-1,-5.4797534E-2,5.4080325E-1,2.1429846E-1,-2.8094048E-2,-5.8427237E-2,1.3794193E-1,2.9975286E-2,3.8149777E-1,1.1207924E-1,-6.6809445E-3,1.3207122E-2,2.0496769E-1,-3.6231525E-2,5.8330107E-1,1.7490352E-2,1.6162723E-2,6.1749537E-3,-2.8211141E-2,-2.1914211E-1,5.2815143E-2,-1.0757848E-2,-1.3025413E-1,3.12177E-2,-9.589876E-3,-2.5179828E-2,1.5786642E-1,-1.3992804E-1,-4.7796465E-2,-2.0312702E-2,-6.0209405E-1,-3.4266216E-1,3.8401533E-3,1.5082831E-2,-3.159451E-2,3.067031E-3,1.5031849E-2,2.9268911E-2,1.8531423E-3,1.661462E-2,1.3540382E-2,-4.1941553E-3,-2.4371674E-2,8.421755E-3,2.3529463E-2,1.4534026E-2,1.3596191E-2,-3.8915884E-3,1.8572135E-2,7.2899098E-3,-1.2173034E-2,9.5603615E-3,3.2921832E-2,1.7608596E-2,-1.1527397E-3,-1.5525847E-2,5.422735E-3,-5.6694733E-4,2.6561217E-3,-1.0909813E-2,-4.437443E-3,6.5197772E-3,1.0128937E-2,-4.5869905E-3,-3.6727026E-4,-1.2308347E-2,4.2369097E-4,-1.0946556E-2,-2.3296935E-2,-3.187881E-2,-2.5250977E-2,-8.519993E-3],"categories":[],"categories_nodes":[],"categories_segments":[],"categories_sizes":[],"default_left":[0,0,0,0,0,0,0,0,0,0,0,0,0,0,0,0,0,0,0,0,0,0,0,0,0,0,0,0,0,0,0,0,0,0,0,0,0,0,0,0,0,0,0,0,0,0,0,0,0,0,0,0,0,0,0,0,0,0,0,0,0,0,0,0,0,0,0,0,0,0,0,0,0,0,0,0,0,0,0,0,0,0,0,0,0,0,0,0,0,0,0,0,0,0,0,0,0,0,0,0,0,0,0,0,0,0,0,0,0,0,0,0,0,0,0,0,0,0,0,0,0,0,0,0,0,0,0,0,0,0,0,0,0],"id":3,"left_children":[1,3,5,7,-1,9,11,13,15,17,19,21,23,25,27,-1,-1,-1,29,31,33,35,37,-1,-1,39,41,43,45,-1,47,49,-1,51,53,55,-1,57,59,61,63,65,67,69,71,73,-1,75,77,79,81,83,85,87,89,-1,-1,-1,91,-1,-1,93,95,97,99,-1,101,103,-1,105,107,-1,-1,109,111,113,-1,-1,-1,-1,115,117,-1,119,121,-1,-1,123,125,127,-1,129,131,-1,-1,-1,-1,-1,-1,-1,-1,-1,-1,-1,-1,-1,-1,-1,-1,-1,-1,-1,-1,-1,-1,-1,-1,-1,-1,-1,-1,-1,-1,-1,-1,-1,-1,-1,-1,-1,-1,-1,-1],"loss_changes":[2.5135954E1,3.5426455E0,1.6746775E1,2.3962526E0,0E0,7.517825E0,2.2671547E0,2.0041094E0,2.2975081E-1,1.6391001E0,2.2730844E0,6.720581E-1,1.5731063E-1,4.022446E0,1.4641542E0,0E0,0E0,0E0,3.8801575E-1,9.682112E-1,1.3722961E0,4.8218584E-1,5.438156E-1,0E0,0E0,3.8496208E0,4.6475825E0,6.98863E-1,5.0121874E-1,0E0,4.9698782E-1,6.4836264E-1,0E0,1.6682816E0,1.0172673E0,2.0510924E-1,0E0,4.2604828E-1,5.648434E-2,1.5751462E0,2.3204727E0,2.465411E0,1.2312717E0,6.5104103E-1,5.319939E-1,4.6927607E-1,0E0,4.7430992E-2,9.80531E-2,4.470222E-1,3.5222298E-1,2.490137E-1,2.4482799E-1,8.0808026E-1,7.23274E-1,0E0,0E0,0E0,4.587078E-1,0E0,0E0,8.771076E-1,3.0826643E0,2.7883244E-1,1.0386748E0,0E0,1.1465595E0,2.7217093E0,0E0,4.541664E-1,3.9770627E-1,0E0,0E0,2.3551714E-1,6.0010135E-1,4.150772E-2,0E0,0E0,0E0,0E0,2.8353804E-1,4.070092E-2,0E0,3.678494E-1,2.1693282E-1,0E0,0E0,5.348933E-1,1.6046059E-1,4.7075412E-1,0E0,6.7873E-2,2.9596436E-1,0E0,0E0,0E0,0E0,0E0,0E0,0E0,0E0,0E0,0E0,0E0,0E0,0E0,0E0,0E0,0E0,0E0,0E0,0E0,0E0,0E0,0E0,0E0,0E0,0E0,0E0,0E0,0E0,0E0,0E0,0E0,0E0,0E0,0E0,0E0,0E0,0E0,0E0,0E0,0E0],"parents":[2147483647,0,0,1,1,2,2,3,3,5,5,6,6,7,7,8,8,9,9,10,10,11,11,12,12,13,13,14,14,18,18,19,19,20,20,21,21,22,22,25,25,26,26,27,27,28,28,30,30,31,31,33,33,34,34,35,35,37,37,38,38,39,39,40,40,41,41,42,42,43,43,44,44,45,45,47,47,48,48,49,49,50,50,51,51,52,52,53,53,54,54,58,58,61,61,62,62,63,63,64,64,66,66,67,67,69,69,70,70,73,73,74,74,75,75,80,80,81,81,83,83,84,84,87,87,88,88,89,89,91,91,92,92],"right_children":[2,4,6,8,-1,10,12,14,16,18,20,22,24,26,28,-1,-1,-1,30,32,34,36,38,-1,-1,40,42,44,46,-1,48,50,-1,52,54,56,-1,58,60,62,64,66,68,70,72,74,-1,76,78,80,82,84,86,88,90,-1,-1,-1,92,-1,-1,94,96,98,100,-1,102,104,-1,106,108,-1,-1,110,112,114,-1,-1,-1,-1,116,118,-1,120,122,-1,-1,124,126,128,-1,130,132,-1,-1,-1,-1,-1,-1,-1,-1,-1,-1,-1,-1,-1,-1,-1,-1,-1,-1,-1,-1,-1,-1,-1,-1,-1,-1,-1,-1,-1,-1,-1,-1,-1,-1,-1,-1,-1,-1,-1,-1],"split_conditions":[7.864552E-1,1.77E0,1.3571428E0,2.9203823E0,-2.5726045E-2,6.8085104E-1,1.8333334E0,1.3268818E0,1.3443013E0,6.870184E-1,1.4303797E0,9.328007E-1,1.3795853E0,6.8720376E-1,1.3640257E0,-1.5491624E-2,-3.8980287E-3,-3.9020174E-3,1.173913E0,1.2093298E0,9.70063E-1,1.6161138E0,1.4286993E0,-6.171731E-3,4.812551E-3,6.363636E-1,2.060606E-1,5.5436957E-1,1.9478673E0,5.823793E-3,1.1635646E0,6.666667E-1,-2.7518395E-2,1.56125E-1,1.3243926E0,1.0371677E0,-2.206306E-2,1.4345404E0,1.0343432E0,1.8181819E-1,6.708075E-1,7.3720837E-1,3E0,1.7151515E0,1.2222222E0,4.8310292E-1,-6.7878473E-3,8.806306E-1,1.1061245E0,9.7442E-1,1.0227586E0,1.3390815E0,8.627451E-1,1.1635646E0,4.8104575E-1,-1.33660985E-2,-1.3465545E-3,-1.576655E-2,1.4427328E0,-1.7186457E-2,-7.6011256E-3,1.6363636E0,7.11304E-1,1.826087E0,3.6324155E-1,-2.8094048E-2,1.7693684E0,8.6356854E-1,2.9975286E-2,8.2770306E-1,9.597414E-1,-6.6809445E-3,1.3207122E-2,1.4345404E0,1.0615385E0,6E-1,1.7490352E-2,1.6162723E-2,6.1749537E-3,-2.8211141E-2,3.3333334E-1,7.4990547E-1,-1.0757848E-2,9.2917717E-1,6.3887644E-1,-9.589876E-3,-2.5179828E-2,1.7530121E0,9.7971916E-1,2.7454545E0,-2.0312702E-2,1.5868946E0,2.179054E0,3.8401533E-3,1.5082831E-2,-3.159451E-2,3.067031E-3,1.5031849E-2,2.9268911E-2,1.8531423E-3,1.661462E-2,1.3540382E-2,-4.1941553E-3,-2.4371674E-2,8.421755E-3,2.3529463E-2,1.4534026E-2,1.3596191E-2,-3.8915884E-3,1.8572135E-2,7.2899098E-3,-1.2173034E-2,9.5603615E-3,3.2921832E-2,1.7608596E-2,-1.1527397E-3,-1.5525847E-2,5.422735E-3,-5.6694733E-4,2.6561217E-3,-1.0909813E-2,-4.437443E-3,6.5197772E-3,1.0128937E-2,-4.5869905E-3,-3.6727026E-4,-1.2308347E-2,4.2369097E-4,-1.0946556E-2,-2.3296935E-2,-3.187881E-2,-2.5250977E-2,-8.519993E-3],"split_indices":[21,4,4,16,0,4,1,4,2,34,1,21,21,4,16,0,0,0,11,21,34,4,21,0,0,4,11,29,10,0,21,23,0,31,2,2,0,4,34,4,4,2,39,4,11,30,0,31,23,4,21,33,4,21,29,0,0,0,28,0,0,11,2,15,21,0,1,2,0,28,2,0,0,4,5,4,0,0,0,0,5,30,0,27,34,0,0,10,4,9,0,4,4,0,0,0,0,0,0,0,0,0,0,0,0,0,0,0,0,0,0,0,0,0,0,0,0,0,0,0,0,0,0,0,0,0,0,0,0,0,0,0,0],"split_type":[0,0,0,0,0,0,0,0,0,0,0,0,0,0,0,0,0,0,0,0,0,0,0,0,0,0,0,0,0,0,0,0,0,0,0,0,0,0,0,0,0,0,0,0,0,0,0,0,0,0,0,0,0,0,0,0,0,0,0,0,0,0,0,0,0,0,0,0,0,0,0,0,0,0,0,0,0,0,0,0,0,0,0,0,0,0,0,0,0,0,0,0,0,0,0,0,0,0,0,0,0,0,0,0,0,0,0,0,0,0,0,0,0,0,0,0,0,0,0,0,0,0,0,0,0,0,0,0,0,0,0,0,0],"sum_hessian":[1.0872524E3,6.583742E2,4.288782E2,6.50663E2,7.7112126E0,2.6494327E2,1.6393495E2,6.320194E2,1.8643604E1,5.052314E1,2.1442012E2,1.5279726E2,1.11376915E1,4.9073633E2,1.4128308E2,1.0409132E1,8.234473E0,8.726633E0,4.179651E1,5.0171535E1,1.642486E2,4.1411335E1,1.11385925E2,5.001307E0,6.136384E0,2.0553372E2,2.852026E2,9.504296E1,4.6240124E1,5.538064E0,3.6258442E1,3.8817932E1,1.1353607E1,5.5327095E1,1.0892149E2,1.8055206E1,2.3356129E1,9.898184E1,1.2404077E1,1.147927E2,9.074103E1,1.4262411E2,1.4257849E2,8.344251E1,1.160045E1,3.915237E1,7.0877504E0,2.253828E1,1.3720163E1,2.072567E1,1.809226E1,3.7351486E1,1.7975609E1,5.5782593E1,5.31389E1,1.2972726E1,5.0824804E0,1.1782134E1,8.7199715E1,7.2020373E0,5.202039E0,7.037654E1,4.441616E1,4.1484997E1,4.925603E1,9.5293045E0,1.330948E2,1.3741919E2,5.159307E0,7.2038414E1,1.1404102E1,5.5971527E0,6.0032964E0,2.8407684E1,1.0744687E1,1.4742845E1,7.7954354E0,7.550453E0,6.16971E0,5.501424E0,1.5224246E1,1.00578785E1,8.034383E0,2.1091448E1,1.6260038E1,5.267745E0,1.2707864E1,4.5262268E1,1.0520326E1,4.769251E1,5.446391E0,7.4540565E1,1.2659144E1,3.767105E1,3.2705486E1,6.6971326E0,3.771903E1,7.7066655E0,3.377833E1,2.0211287E1,2.9044744E1,8.860374E0,1.2423443E2,5.6923075E0,1.3172688E2,3.42538E1,3.778461E1,5.957737E0,5.4463654E0,6.0652714E0,2.2342413E1,5.5852666E0,5.15942E0,9.730778E0,5.012067E0,5.2373586E0,9.986887E0,5.0165715E0,5.0413065E0,6.964675E0,1.4126773E1,7.40637E0,8.853668E0,3.8545895E1,6.7163754E0,5.155533E0,5.3647933E0,3.6606514E1,1.1085996E1,1.833096E1,5.6209606E1,5.5224967E0,7.136648E0],"tree_param":{"num_deleted":"0","num_feature":"40","num_nodes":"133","size_leaf_vector":"1"}},{"base_weights":[4.750486E-4,1.1860652E-1,-1.9245285E-1,-4.4956278E-2,1.5414704E-1,-1.3850803E-3,-4.445531E-1,8.883782E-3,-2.934811E-2,3.432E-1,9.8076835E-2,2.3897335E-1,-8.1882775E-2,-4.928087E-1,3.2105097E-3,8.785891E-2,-2.4208371E-1,1.8919723E-1,5.5629694E-1,2.1188763E-1,-2.9106725E-2,-9.351966E-3,2.9974547E-1,-3.5813734E-1,-4.9604406E-3,-3.6797356E-2,-4.3858367E-1,2.1802291E-1,-1.5014762E-2,1.339863E-1,-1.7544314E-2,-3.5325134E-1,-5.4549234E-4,-1.6967595E-1,2.5017616E-1,6.149215E-1,1.1151767E-2,2.951092E-1,1.3922843E-1,1.8655172E-1,-5.0854933E-2,4.7372955E-1,1.4745979E-1,-2.504129E-1,-2.5161887E-2,2.3252023E-2,-1.8144028E-2,-4.619779E-1,-1.4584701E-1,5.3212256E-3,1.4796222E-2,1.9582306E-1,-1.7292707E-1,-2.364552E-2,-8.996484E-3,-1.507345E-2,-4.0951543E-4,4.2837313E-1,1.4432238E-1,2.0062039E-2,3.2509677E-2,4.4549623E-1,2.0556173E-1,1.6295652E-1,-1.01709396E-1,-1.6934257E-3,2.0661335E-2,-9.497765E-2,6.773553E-2,3.0411443E-2,1.3231173E-2,-3.8679518E-2,2.643342E-1,-1.697765E-2,-1.7180428E-1,-2.4813615E-1,5.38125E-2,-4.247228E-1,-3.029466E-2,1.4644158E-3,-1.4979298E-2,9.6309446E-2,4.2046118E-1,-2.95543E-3,-1.3458571E-2,2.7672857E-2,2.6475942E-1,1.9157209E-1,-4.7198194E-3,1.22506935E-2,4.9712935E-1,-6.1772442E-3,2.3628803E-1,2.0313853E-1,1.0745757E-3,-9.5269893E-4,-8.623547E-3,-1.5654504E-1,7.1695924E-2,3.1647933E-1,-5.7443515E-3,6.508668E-3,-1.0784904E-2,6.536233E-3,1.982688E-2,-9.998347E-4,-1.2407252E-2,-4.8076767E-3,-1.9802917E-2,9.048352E-2,-1.03322536E-1,-4.7796604E-1,-2.6374942E-1,1.0301259E-2,-2.191125E-2,2.600578E-2,6.2937126E-3,5.5373213E-3,1.8586775E-2,-4.2991266E-3,1.2396589E-2,2.8768146E-2,1.5228361E-2,9.562216E-3,2.1476878E-2,6.0484163E-3,1.5032331E-2,-8.820906E-3,7.088601E-3,-9.699865E-3,3.7689642E-3,7.983307E-3,-1.2427367E-2,2.0853795E-2,7.891926E-3,-5.7361936E-3,8.9982245E-3,6.1008628E-3,-9.418766E-3,-1.5110484E-2,1.5140194E-3,-1.7878773E-2,-2.6849309E-2,-9.2864325E-3,-2.01406E-2],"categories":[],"categories_nodes":[],"categories_segments":[],"categories_sizes":[],"default_left":[0,0,0,0,0,0,0,0,0,0,0,0,0,0,0,0,0,0,0,0,0,0,0,0,0,0,0,0,0,0,0,0,0,0,0,0,0,0,0,0,0,0,0,0,0,0,0,0,0,0,0,0,0,0,0,0,0,0,0,0,0,0,0,0,0,0,0,0,0,0,0,0,0,0,0,0,0,0,0,0,0,0,0,0,0,0,0,0,0,0,0,0,0,0,0,0,0,0,0,0,0,0,0,0,0,0,0,0,0,0,0,0,0,0,0,0,0,0,0,0,0,0,0,0,0,0,0,0,0,0,0,0,0,0,0,0,0,0,0,0,0,0,0,0,0],"id":4,"left_children":[1,3,5,7,9,11,13,15,-1,17,19,21,23,25,27,29,31,33,35,37,39,-1,41,43,45,-1,47,49,-1,51,-1,53,-1,55,57,59,-1,61,63,65,67,69,71,73,-1,75,-1,77,79,-1,-1,81,83,-1,-1,-1,-1,85,87,-1,-1,89,91,93,95,-1,-1,97,99,-1,-1,101,103,-1,105,107,109,111,-1,-1,-1,113,115,-1,-1,-1,117,119,-1,-1,121,-1,123,125,127,-1,-1,129,131,133,135,-1,-1,-1,-1,-1,-1,-1,-1,137,139,141,143,-1,-1,-1,-1,-1,-1,-1,-1,-1,-1,-1,-1,-1,-1,-1,-1,-1,-1,-1,-1,-1,-1,-1,-1,-1,-1,-1,-1,-1,-1,-1,-1],"loss_changes":[2.4573263E1,3.8943415E0,1.9722986E1,3.5112374E0,5.792096E0,4.545828E0,3.8160439E0,2.206916E0,0E0,4.0072517E0,6.1619396E0,1.5821571E0,3.7380328E0,1.7783813E0,1.2499737E0,1.7594125E0,6.8131936E-1,1.6675055E0,8.798752E-1,1.3167648E0,9.5557535E-1,0E0,1.3071342E0,4.7290707E-1,1.4087322E0,0E0,8.419666E-1,6.603098E-2,0E0,1.5006489E0,0E0,2.8763723E-1,0E0,2.3975208E-1,1.1430886E0,6.847191E-2,0E0,1.3059683E0,7.127869E-1,9.4796515E-1,9.6934354E-1,5.085683E-1,6.4472157E-1,1.09702826E-1,0E0,1.0872347E0,0E0,3.9942932E-1,3.1269193E-1,0E0,0E0,1.4079714E0,1.3188025E-1,0E0,0E0,0E0,0E0,3.3023834E-1,4.8709404E-1,0E0,0E0,2.7025652E-1,7.057266E-1,7.2340655E-1,6.4171754E-2,0E0,0E0,1.3918117E0,9.2456913E-1,0E0,0E0,3.9039838E-1,2.6688457E-1,0E0,1.6617998E-1,2.605425E-1,6.846777E-1,7.365856E-1,0E0,0E0,0E0,2.7997885E0,5.0977325E-1,0E0,0E0,0E0,1.5671664E-1,5.694597E-1,0E0,0E0,2.63844E-1,0E0,4.5347905E-1,6.776712E-1,6.0256684E-1,0E0,0E0,8.7073493E-1,1.0814041E0,1.1818087E-1,8.292679E-1,0E0,0E0,0E0,0E0,0E0,0E0,0E0,0E0,8.632468E-1,6.1080396E-1,3.3665085E-1,2.2081745E-1,0E0,0E0,0E0,0E0,0E0,0E0,0E0,0E0,0E0,0E0,0E0,0E0,0E0,0E0,0E0,0E0,0E0,0E0,0E0,0E0,0E0,0E0,0E0,0E0,0E0,0E0,0E0,0E0,0E0,0E0,0E0,0E0],"parents":[2147483647,0,0,1,1,2,2,3,3,4,4,5,5,6,6,7,7,9,9,10,10,11,11,12,12,13,13,14,14,15,15,16,16,17,17,18,18,19,19,20,20,22,22,23,23,24,24,26,26,27,27,29,29,31,31,33,33,34,34,35,35,37,37,38,38,39,39,40,40,41,41,42,42,43,43,45,45,47,47,48,48,51,51,52,52,57,57,58,58,61,61,62,62,63,63,64,64,67,67,68,68,71,71,72,72,74,74,75,75,76,76,77,77,81,81,82,82,86,86,87,87,90,90,92,92,93,93,94,94,97,97,98,98,99,99,100,100,109,109,110,110,111,111,112,112],"right_children":[2,4,6,8,10,12,14,16,-1,18,20,22,24,26,28,30,32,34,36,38,40,-1,42,44,46,-1,48,50,-1,52,-1,54,-1,56,58,60,-1,62,64,66,68,70,72,74,-1,76,-1,78,80,-1,-1,82,84,-1,-1,-1,-1,86,88,-1,-1,90,92,94,96,-1,-1,98,100,-1,-1,102,104,-1,106,108,110,112,-1,-1,-1,114,116,-1,-1,-1,118,120,-1,-1,122,-1,124,126,128,-1,-1,130,132,134,136,-1,-1,-1,-1,-1,-1,-1,-1,138,140,142,144,-1,-1,-1,-1,-1,-1,-1,-1,-1,-1,-1,-1,-1,-1,-1,-1,-1,-1,-1,-1,-1,-1,-1,-1,-1,-1,-1,-1,-1,-1,-1,-1],"split_conditions":[7.953564E-1,1.1428572E0,1.2795031E0,2.5524476E-1,9.4463533E-1,6.8085104E-1,1.8333334E0,1E0,-2.934811E-2,9.356923E-1,1.7991761E0,2.7272727E-2,1.438282E0,7.242011E-1,1.8334883E0,6.642189E-1,7.3323065E-1,2.696337E-1,3.3333334E-1,1.3602484E0,9.5081806E-1,-9.351966E-3,8.996094E-1,2.5752026E-1,9.5379364E-1,-3.6797356E-2,2.05679E0,1.0956604E0,-1.5014762E-2,5.6475145E-1,-1.7544314E-2,6.804573E-1,-5.4549234E-4,3.9130434E-1,1.2807018E0,1.7911975E0,1.1151767E-2,6.9586307E-1,7.5E-1,9.4712657E-1,1.1117021E0,1.1147177E0,1.3686131E0,4.8412293E-1,-2.5161887E-2,6.3887644E-1,-1.8144028E-2,1.1952286E0,3.2407406E-1,5.3212256E-3,1.4796222E-2,1.995896E0,5.167464E-1,-2.364552E-2,-8.996484E-3,-1.507345E-2,-4.0951543E-4,1.2857143E0,1.24E0,2.0062039E-2,3.2509677E-2,1.4621212E0,1.0124408E0,1.5072464E0,1.0772293E0,-1.6934257E-3,2.0661335E-2,7.754451E-1,1.4505119E0,3.0411443E-2,1.3231173E-2,1.0248448E0,1.7525773E0,-1.697765E-2,1.0610584E0,1.2244898E-1,2.7672956E0,1.0201474E0,-3.029466E-2,1.4644158E-3,-1.4979298E-2,1.8181819E-1,6.4617485E-1,-2.95543E-3,-1.3458571E-2,2.7672857E-2,1.1470588E0,1.3809524E-1,-4.7198194E-3,1.22506935E-2,3.2329318E-1,-6.1772442E-3,2.71875E0,6.2068963E-1,1.0605114E0,-9.5269893E-4,-8.623547E-3,1.8299929E0,1.4363147E0,5.025453E-1,1.3459096E0,6.508668E-3,-1.0784904E-2,6.536233E-3,1.982688E-2,-9.998347E-4,-1.2407252E-2,-4.8076767E-3,-1.9802917E-2,1.1635646E0,9.09594E-1,1.980198E-2,2.857143E-1,1.0301259E-2,-2.191125E-2,2.600578E-2,6.2937126E-3,5.5373213E-3,1.8586775E-2,-4.2991266E-3,1.2396589E-2,2.8768146E-2,1.5228361E-2,9.562216E-3,2.1476878E-2,6.0484163E-3,1.5032331E-2,-8.820906E-3,7.088601E-3,-9.699865E-3,3.7689642E-3,7.983307E-3,-1.2427367E-2,2.0853795E-2,7.891926E-3,-5.7361936E-3,8.9982245E-3,6.1008628E-3,-9.418766E-3,-1.5110484E-2,1.5140194E-3,-1.7878773E-2,-2.6849309E-2,-9.2864325E-3,-2.01406E-2],"split_indices":[21,3,4,0,22,4,1,10,0,22,1,12,1,22,1,22,29,33,0,16,22,0,22,0,25,0,3,34,0,21,0,28,0,4,16,1,0,21,14,22,11,23,9,29,0,34,0,22,0,0,0,11,10,0,0,0,0,4,4,0,0,3,22,5,22,0,0,21,16,0,0,9,5,0,1,12,15,22,0,0,0,4,3,0,0,0,16,10,0,0,0,0,12,12,27,0,0,1,27,21,33,0,0,0,0,0,0,0,0,21,21,5,6,0,0,0,0,0,0,0,0,0,0,0,0,0,0,0,0,0,0,0,0,0,0,0,0,0,0,0,0,0,0,0,0],"split_type":[0,0,0,0,0,0,0,0,0,0,0,0,0,0,0,0,0,0,0,0,0,0,0,0,0,0,0,0,0,0,0,0,0,0,0,0,0,0,0,0,0,0,0,0,0,0,0,0,0,0,0,0,0,0,0,0,0,0,0,0,0,0,0,0,0,0,0,0,0,0,0,0,0,0,0,0,0,0,0,0,0,0,0,0,0,0,0,0,0,0,0,0,0,0,0,0,0,0,0,0,0,0,0,0,0,0,0,0,0,0,0,0,0,0,0,0,0,0,0,0,0,0,0,0,0,0,0,0,0,0,0,0,0,0,0,0,0,0,0,0,0,0,0,0,0],"sum_hessian":[1.0762056E3,6.677323E2,4.0847324E2,1.19144844E2,5.4858746E2,2.3293579E2,1.7553745E2,1.09273766E2,9.871079E0,1.2431416E2,4.242733E2,5.794597E1,1.7498982E2,1.5836934E2,1.7168106E1,8.3612335E1,2.5661434E1,7.3258736E1,5.105542E1,2.2355663E2,2.0071666E2,6.974811E0,5.0971157E1,3.7316742E1,1.3767308E2,2.6586514E1,1.3178282E2,1.0217858E1,6.950247E0,7.6286575E1,7.325758E0,1.697187E1,8.689563E0,1.038114E1,6.2877598E1,4.2699013E1,8.356408E0,1.0277722E2,1.207794E2,1.7692947E1,1.8302371E2,2.2805464E1,2.8165693E1,2.2981073E1,1.4335667E1,1.2848083E2,9.192253E0,1.21495316E2,1.028751E1,5.1731563E0,5.044702E0,6.379512E1,1.2491454E1,9.017672E0,7.9541993E0,5.238777E0,5.1423626E0,2.2296413E1,4.0581184E1,7.803064E0,3.489595E1,3.6874622E1,6.5902596E1,1.10245804E2,1.0533598E1,9.401477E0,8.2914715E0,1.3353853E2,4.9485172E1,1.2717024E1,1.008844E1,1.1121752E1,1.7043941E1,9.213579E0,1.3767494E1,1.2283082E1,1.1619775E2,9.965023E1,2.1845089E1,5.187519E0,5.099991E0,4.5200325E1,1.8594797E1,6.4627566E0,6.0286975E0,1.1285699E1,1.10107155E1,3.4040947E1,6.5402393E0,8.728534E0,2.814609E1,5.3695064E0,6.0533092E1,8.8118385E1,2.2127419E1,5.443917E0,5.089681E0,9.756125E1,3.5977287E1,1.0530466E1,3.895471E1,5.827604E0,5.2941484E0,9.466037E0,7.5779047E0,5.0290008E0,8.738493E0,6.872235E0,5.410847E0,9.45553E1,2.164245E1,7.340253E1,2.6247698E1,3.8012623E1,7.187701E0,1.3322436E1,5.2723603E0,5.347372E0,5.6633434E0,5.656884E0,2.8384062E1,1.8600998E1,9.545091E0,5.0704273E1,9.82882E0,4.9036156E1,3.908223E1,9.672049E0,1.2455371E1,8.41378E1,1.3423445E1,2.8617529E1,7.359759E0,5.447233E0,5.083233E0,2.478964E1,1.4165068E1,8.545443E1,9.100863E0,8.189382E0,1.345307E1,2.6468998E1,4.6933533E1,1.8310314E1,7.937385E0],"tree_param":{"num_deleted":"0","num_feature":"40","num_nodes":"145","size_leaf_vector":"1"}},{"base_weights":[1.2272857E-3,1.25445E-1,-1.9215511E-1,2.507162E-1,6.275473E-2,-3.486442E-3,-4.6640012E-1,6.4525135E-2,4.2839205E-1,1.527819E-1,-8.7851435E-2,2.8789607E-1,-7.275986E-2,-5.1116854E-1,-4.373974E-2,-8.969732E-2,1.3155438E-1,5.5620056E-1,1.1787052E-1,-8.458044E-2,2.0038566E-1,-1.5536678E-1,8.463115E-2,3.9822522E-1,3.318213E-2,-2.8695154E-1,-3.7661563E-3,-3.651578E-2,-4.583062E-1,-1.7128488E-2,1.2744415E-1,-2.7299676E-2,1.11107275E-1,-7.706544E-3,1.6714567E-1,4.4304308E-1,3.271116E-2,2.350552E-1,-5.4734282E-2,-4.6366638E-1,4.443825E-1,2.8862873E-1,9.140823E-2,-2.6389465E-1,8.759507E-2,2.8970551E-1,1.5298387E-2,2.2361085E-3,4.7119415E-1,-1.3349371E-2,1.0926684E-2,3.1030313E-3,-3.7114906E-1,5.2866366E-2,-1.6440728E-1,-4.7122815E-1,-8.1206085E-3,1.1613174E-2,2.0308715E-4,1.55329285E-2,3.499498E-2,3.4054667E-2,2.6230076E-1,1.2838005E-2,2.4831383E-2,-1.894546E-3,3.756346E-1,-1.1289734E-2,6.618718E-3,-3.210939E-2,-1.9207028E-1,2.5881503E-2,1.2663796E-2,3.1191295E-1,-1.4343739E-3,-3.4896113E-2,1.7365102E-1,7.884407E-3,-3.0177772E-1,-1.8109659E-2,2.7389792E-1,5.445821E-3,2.0879822E-2,-1.1011153E-2,1.1332194E-1,3.116932E-2,3.5010505E-1,-6.2047276E-3,-4.1101277E-1,-1.0391965E-2,2.3419833E-1,-2.5174085E-2,-5.747506E-2,-4.3697613E-1,-2.972934E-2,-7.03626E-3,7.962473E-3,-9.907566E-3,1.5377524E-1,3.34085E-1,1.7856555E-3,8.450912E-3,2.960436E-2,-1.491044E-3,-1.4997984E-2,4.7441232E-1,2.6136735E-1,-1.6916224E-1,8.7443605E-2,2.2064716E-1,-1.2516255E-2,2.8077464E-3,-3.380718E-1,-1.3987909E-2,1.04773425E-1,2.2394119E-2,-2.596281E-4,1.7986661E-1,-2.6151019E-3,2.3144512E-2,1.0053506E-2,-4.499559E-1,-1.1369958E-2,1.6516162E-1,-6.076564E-2,1.1383372E-1,3.2212973E-1,8.831277E-2,-2.2286123E-1,-4.9372256E-1,-2.9586422E-1,1.1710409E-2,-1.4154636E-3,2.1514488E-2,1.0836065E-2,2.6740555E-2,1.11739645E-2,1.9817358E-2,1.0039007E-2,-2.337202E-3,-1.1347003E-2,-6.525863E-3,1.0002485E-2,1.4382417E-2,-2.9640736E-3,-2.4499957E-2,-1.4726626E-2,1.1771309E-2,-3.0493666E-3,1.2023403E-2,1.2635736E-3,-2.4420587E-2,-1.4043234E-2,1.1273259E-3,1.4042598E-2,-9.994147E-3,1.11061E-3,1.2321747E-2,-4.7307312E-3,2.1793839E-2,1.0687328E-2,1.4903049E-2,-8.553554E-3,8.1197846E-5,-1.9953143E-2,-1.824666E-2,-2.8023968E-2,-5.372268E-3,-1.694027E-2],"categories":[],"categories_nodes":[],"categories_segments":[],"categories_sizes":[],"default_left":[0,0,0,0,0,0,0,0,0,0,0,0,0,0,0,0,0,0,0,0,0,0,0,0,0,0,0,0,0,0,0,0,0,0,0,0,0,0,0,0,0,0,0,0,0,0,0,0,0,0,0,0,0,0,0,0,0,0,0,0,0,0,0,0,0,0,0,0,0,0,0,0,0,0,0,0,0,0,0,0,0,0,0,0,0,0,0,0,0,0,0,0,0,0,0,0,0,0,0,0,0,0,0,0,0,0,0,0,0,0,0,0,0,0,0,0,0,0,0,0,0,0,0,0,0,0,0,0,0,0,0,0,0,0,0,0,0,0,0,0,0,0,0,0,0,0,0,0,0,0,0,0,0,0,0,0,0,0,0,0,0,0,0,0,0,0,0,0,0],"id":5,"left_children":[1,3,5,7,9,11,13,15,17,19,21,23,25,27,29,31,33,35,37,39,41,43,45,47,49,51,53,-1,55,-1,57,-1,59,-1,61,63,-1,65,67,69,71,73,75,77,79,81,83,-1,85,-1,-1,-1,87,89,91,93,-1,-1,-1,-1,95,97,99,-1,-1,-1,101,-1,-1,-1,103,-1,-1,105,-1,107,109,-1,111,113,115,-1,-1,-1,117,-1,119,-1,121,123,125,-1,127,129,-1,-1,-1,-1,131,133,-1,-1,-1,-1,-1,135,137,139,141,143,-1,-1,145,-1,147,-1,-1,149,-1,-1,-1,151,-1,153,155,157,159,161,163,165,167,-1,-1,-1,-1,-1,-1,-1,-1,-1,-1,-1,-1,-1,-1,-1,-1,-1,-1,-1,-1,-1,-1,-1,-1,-1,-1,-1,-1,-1,-1,-1,-1,-1,-1,-1,-1,-1,-1],"loss_changes":[2.552428E1,5.0651207E0,2.1501278E1,7.099761E0,5.877848E0,5.010952E0,3.1824532E0,1.111502E0,4.302742E0,3.0798616E0,1.9049498E0,1.3268597E0,2.962288E0,1.438385E0,9.294172E-1,3.068129E0,7.8385687E-1,5.7206154E-1,6.8767905E-1,9.427191E0,2.1477585E0,3.110954E0,6.545618E-1,8.3485556E-1,9.2089295E-1,1.4583049E0,1.3977479E0,0E0,4.0521812E-1,0E0,1.5085857E-1,0E0,3.479306E-1,0E0,8.3676076E-1,2.6343775E-1,0E0,7.839614E-1,4.8765993E-1,1.1992121E0,1.447761E-1,9.285393E-1,1.0720503E0,1.3443594E0,7.3180735E-1,2.2398895E-1,8.489952E-1,0E0,2.8669834E-1,0E0,0E0,0E0,3.3793736E-1,1.3060218E0,1.4228626E0,2.4804688E-1,0E0,0E0,0E0,0E0,4.203991E-1,8.3635086E-1,6.189904E-1,0E0,0E0,0E0,4.961865E-1,0E0,0E0,0E0,2.0540631E-1,0E0,0E0,8.291025E-1,0E0,6.932295E-1,1.2969499E0,0E0,9.912801E-1,8.165899E-1,6.540984E-1,0E0,0E0,0E0,2.944633E-1,0E0,2.0176077E-1,0E0,1.3774395E-1,7.635731E-1,2.748587E-1,0E0,7.8086823E-1,6.374588E-1,0E0,0E0,0E0,0E0,2.950044E-1,2.3799276E-1,0E0,0E0,0E0,0E0,0E0,2.7914238E-1,6.6245747E-1,1.3108069E-1,5.727052E-1,1.0792122E0,0E0,0E0,3.0612564E-1,0E0,3.9094585E-1,0E0,0E0,1.688925E-1,0E0,0E0,0E0,3.628874E-2,0E0,3.1157017E-1,7.771992E-1,4.0951198E-1,1.0978341E-1,1.002822E0,5.969148E-1,3.8259125E-1,2.1084523E-1,0E0,0E0,0E0,0E0,0E0,0E0,0E0,0E0,0E0,0E0,0E0,0E0,0E0,0E0,0E0,0E0,0E0,0E0,0E0,0E0,0E0,0E0,0E0,0E0,0E0,0E0,0E0,0E0,0E0,0E0,0E0,0E0,0E0,0E0,0E0,0E0,0E0,0E0],"parents":[2147483647,0,0,1,1,2,2,3,3,4,4,5,5,6,6,7,7,8,8,9,9,10,10,11,11,12,12,13,13,14,14,15,15,16,16,17,17,18,18,19,19,20,20,21,21,22,22,23,23,24,24,25,25,26,26,28,28,30,30,32,32,34,34,35,35,37,37,38,38,39,39,40,40,41,41,42,42,43,43,44,44,45,45,46,46,48,48,52,52,53,53,54,54,55,55,60,60,61,61,62,62,66,66,70,70,73,73,75,75,76,76,78,78,79,79,80,80,84,84,86,86,88,88,89,89,90,90,92,92,93,93,98,98,99,99,105,105,106,106,107,107,108,108,109,109,112,112,114,114,117,117,121,121,123,123,124,124,125,125,126,126,127,127,128,128,129,129,130,130],"right_children":[2,4,6,8,10,12,14,16,18,20,22,24,26,28,30,32,34,36,38,40,42,44,46,48,50,52,54,-1,56,-1,58,-1,60,-1,62,64,-1,66,68,70,72,74,76,78,80,82,84,-1,86,-1,-1,-1,88,90,92,94,-1,-1,-1,-1,96,98,100,-1,-1,-1,102,-1,-1,-1,104,-1,-1,106,-1,108,110,-1,112,114,116,-1,-1,-1,118,-1,120,-1,122,124,126,-1,128,130,-1,-1,-1,-1,132,134,-1,-1,-1,-1,-1,136,138,140,142,144,-1,-1,146,-1,148,-1,-1,150,-1,-1,-1,152,-1,154,156,158,160,162,164,166,168,-1,-1,-1,-1,-1,-1,-1,-1,-1,-1,-1,-1,-1,-1,-1,-1,-1,-1,-1,-1,-1,-1,-1,-1,-1,-1,-1,-1,-1,-1,-1,-1,-1,-1,-1,-1,-1,-1],"split_conditions":[7.953564E-1,6.8085104E-1,1.2795031E0,6.363636E-1,1.3422471E0,6.363636E-1,1.8333334E0,7.164276E-1,9.4463533E-1,1.1266512E0,1.8288288E0,9.40371E-1,1.438282E0,7.242011E-1,1.3795853E0,5E0,9.80057E-1,1.808642E0,6.708075E-1,2E0,1.3640257E0,7.754451E-1,1.3432266E0,4.45E-1,1.027027E0,6.759411E-1,9.558139E-1,-3.651578E-2,2.1717172E0,-1.7128488E-2,2.0513918E0,-2.7299676E-2,2.4520989E-1,-7.706544E-3,5.18797E-1,5.250252E-1,3.271116E-2,9.4712657E-1,9.541268E-1,8.6356854E-1,2.784057E-1,9.296589E-1,6.2068963E-1,2.3108375E-1,1.4025929E0,5.6932324E-1,3.6464226E-1,2.2361085E-3,1.244898E0,-1.3349371E-2,1.0926684E-2,3.1030313E-3,1.4285715E-1,1.981982E0,8.182354E-1,1.1952286E0,-8.1206085E-3,1.1613174E-2,2.0308715E-4,1.55329285E-2,4.635124E-1,2.1026785E0,5.182047E-1,1.2838005E-2,2.4831383E-2,-1.894546E-3,1.8273793E0,-1.1289734E-2,6.618718E-3,-3.210939E-2,1.0100302E0,2.5881503E-2,1.2663796E-2,6.6607654E-1,-1.4343739E-3,2.0026248E0,2.375E0,7.884407E-3,6.8720376E-1,6.748408E-1,1.4256711E0,5.445821E-3,2.0879822E-2,-1.1011153E-2,1.0549178E0,3.116932E-2,8.5415614E-1,-6.2047276E-3,1.4E0,1.109538E0,1.2862349E0,-2.5174085E-2,1.514888E0,1.0018164E0,-2.972934E-2,-7.03626E-3,7.962473E-3,-9.907566E-3,8.765026E-1,6.3074803E-1,1.7856555E-3,8.450912E-3,2.960436E-2,-1.491044E-3,-1.4997984E-2,1.6875E0,1.4584527E0,1.980198E-2,1.310559E0,1.0304022E0,-1.2516255E-2,2.8077464E-3,1.3431134E0,-1.3987909E-2,1.0969025E0,2.2394119E-2,-2.596281E-4,1.0314299E0,-2.6151019E-3,2.3144512E-2,1.0053506E-2,1.6486486E0,-1.1369958E-2,1.8066732E0,9.039347E-1,1.2011956E0,1.3469968E0,1.102004E0,3.5714287E-2,1.980198E-2,1.980198E-2,1.1710409E-2,-1.4154636E-3,2.1514488E-2,1.0836065E-2,2.6740555E-2,1.11739645E-2,1.9817358E-2,1.0039007E-2,-2.337202E-3,-1.1347003E-2,-6.525863E-3,1.0002485E-2,1.4382417E-2,-2.9640736E-3,-2.4499957E-2,-1.4726626E-2,1.1771309E-2,-3.0493666E-3,1.2023403E-2,1.2635736E-3,-2.4420587E-2,-1.4043234E-2,1.1273259E-3,1.4042598E-2,-9.994147E-3,1.11061E-3,1.2321747E-2,-4.7307312E-3,2.1793839E-2,1.0687328E-2,1.4903049E-2,-8.553554E-3,8.1197846E-5,-1.9953143E-2,-1.824666E-2,-2.8023968E-2,-5.372268E-3,-1.694027E-2],"split_indices":[21,4,4,4,2,4,1,2,22,1,1,22,1,22,21,39,3,1,4,11,16,21,2,12,5,4,30,0,3,0,16,0,21,0,11,34,0,22,22,2,3,30,12,33,22,21,31,0,6,0,0,0,16,6,34,22,0,0,0,0,28,16,22,0,0,0,1,0,0,0,22,0,0,21,0,9,11,0,4,33,22,0,0,0,30,0,33,0,12,22,22,0,1,22,0,0,0,0,28,28,0,0,0,0,0,4,4,5,4,30,0,0,2,0,22,0,0,28,0,0,0,3,0,1,21,22,22,21,13,5,5,0,0,0,0,0,0,0,0,0,0,0,0,0,0,0,0,0,0,0,0,0,0,0,0,0,0,0,0,0,0,0,0,0,0,0,0,0,0],"split_type":[0,0,0,0,0,0,0,0,0,0,0,0,0,0,0,0,0,0,0,0,0,0,0,0,0,0,0,0,0,0,0,0,0,0,0,0,0,0,0,0,0,0,0,0,0,0,0,0,0,0,0,0,0,0,0,0,0,0,0,0,0,0,0,0,0,0,0,0,0,0,0,0,0,0,0,0,0,0,0,0,0,0,0,0,0,0,0,0,0,0,0,0,0,0,0,0,0,0,0,0,0,0,0,0,0,0,0,0,0,0,0,0,0,0,0,0,0,0,0,0,0,0,0,0,0,0,0,0,0,0,0,0,0,0,0,0,0,0,0,0,0,0,0,0,0,0,0,0,0,0,0,0,0,0,0,0,0,0,0,0,0,0,0,0,0,0,0,0,0],"sum_hessian":[1.0605555E3,6.459718E2,4.1458377E2,2.144488E2,4.3152298E2,2.4621278E2,1.6837099E2,1.0538075E2,1.09068054E2,2.7007E2,1.6145297E2,4.6685432E1,1.9952736E2,1.5205576E2,1.6315231E1,3.1823145E1,7.355761E1,7.6705444E1,3.2362614E1,4.498561E1,2.250844E2,1.1610493E2,4.5348045E1,3.218228E1,1.4503154E1,4.784206E1,1.5168529E2,2.7059982E1,1.2499577E2,5.577534E0,1.0737697E1,9.199571E0,2.2623575E1,7.7798085E0,6.57778E1,3.8166153E1,3.8539288E1,1.9060362E1,1.3302253E1,2.6277239E1,1.870837E1,1.23463165E2,1.0162122E2,8.019619E1,3.590874E1,1.0654725E1,3.469332E1,5.78232E0,2.639996E1,5.3685536E0,9.1346E0,9.349559E0,3.84925E1,1.12644455E2,3.904084E1,1.1919774E2,5.7980356E0,5.328451E0,5.4092455E0,5.3956556E0,1.7227919E1,2.7988665E1,3.778914E1,9.819844E0,2.834631E1,6.7279596E0,1.2332401E1,6.8411283E0,6.4611244E0,1.5032081E1,1.1245157E1,1.228946E1,6.4189105E0,1.1503881E2,8.424354E0,4.030245E1,6.1318775E1,6.351451E0,7.384474E1,2.3486013E1,1.2422728E1,5.181579E0,5.4731464E0,9.829447E0,2.4863873E1,9.859618E0,1.6540342E1,5.9194984E0,3.2573E1,8.421013E1,2.8434324E1,8.471117E0,3.0569721E1,9.68488E1,2.2348936E1,7.0811825E0,1.0146736E1,9.298497E0,1.8690166E1,2.8337303E1,9.451834E0,7.220693E0,5.1117086E0,5.0009246E0,6.244233E0,2.530376E1,8.9735054E1,1.9032175E1,2.1270271E1,5.5631783E1,5.6869936E0,6.748058E0,6.709668E1,7.0973577E0,1.6388655E1,7.279752E0,5.1429753E0,1.7675991E1,7.187883E0,8.216457E0,8.323885E0,2.5676617E1,6.896387E0,1.8267763E1,6.594237E1,1.2972091E1,1.5462234E1,1.6495216E1,1.4074505E1,6.729011E1,2.9558695E1,1.2765119E1,5.925049E0,1.41071615E1,1.4230143E1,1.9482979E1,5.8207803E0,2.6083319E1,6.3651733E1,6.682498E0,1.2349678E1,7.1914353E0,1.4078837E1,4.4865585E1,1.0766198E1,1.2661405E1,5.4435276E1,8.929857E0,7.458798E0,1.2299217E1,5.3767734E0,1.9380518E1,6.2960978E0,8.7169695E0,9.550794E0,2.4110613E1,4.1831753E1,7.8171167E0,5.154974E0,6.070098E0,9.392136E0,9.037787E0,7.45743E0,6.6249447E0,7.4495597E0,2.517954E1,4.211057E1,6.1361985E0,2.3422497E1],"tree_param":{"num_deleted":"0","num_feature":"40","num_nodes":"169","size_leaf_vector":"1"}},{"base_weights":[-2.9798155E-3,4.9912445E-2,-5.1213205E-1,2.628413E-1,-3.584416E-2,-6.11328E-1,7.144448E-2,2.7414516E-2,3.8574874E-1,7.345042E-2,-2.0432939E-1,-3.6953297E-2,-5.4283315E-1,1.3175105E-2,-1.2643442E-2,1.23475134E-1,-2.2598311E-1,4.5026588E-1,3.548326E-2,1.7216122E-1,-1.0610082E-1,-9.428648E-2,-4.5010993E-1,-2.161E-2,-3.0748365E-2,-7.296254E-3,1.7048897E-1,-2.4928747E-2,-6.820927E-2,2.5950322E-1,5.2899426E-1,-1.650645E-1,2.6697809E-1,-6.1386455E-2,2.1581344E-1,-1.9610743E-1,7.143906E-2,-3.900734E-1,-2.2379948E-2,-4.691925E-1,-7.7407593E-3,1.1914965E-1,1.9436857E-2,-1.0410998E-2,6.646047E-3,-1.11353155E-2,3.2958528E-1,5.6476545E-1,2.9236868E-1,-1.5377119E-2,-3.498001E-3,1.9025367E-2,3.0420565E-3,-5.300429E-1,4.1206294E-1,3.1854862E-1,1.3868004E-1,-2.7296293E-1,5.2725058E-2,1.2729801E-2,3.764806E-2,-4.0020035E-3,-4.4669622E-1,-7.039791E-2,2.0430589E-1,-4.0167305E-1,-2.792698E-2,1.4631331E-2,8.336232E-2,4.3972203E-1,1.9458835E-1,5.999467E-1,3.14784E-1,5.962524E-3,2.0063011E-2,-8.083947E-3,-3.2543197E-2,5.111984E-1,6.4119585E-3,3.3603156E-1,3.6331203E-3,4.0365994E-1,1.0582738E-1,-3.3864388E-1,-4.19561E-2,-8.908134E-2,1.6250706E-1,1.13627255E-1,-6.9450766E-2,-5.0528336E-1,-1.0560123E-2,3.300282E-2,-1.6528517E-1,-4.9692006E-3,2.82249E-1,-2.5433762E-2,-2.756476E-1,-2.081707E-3,8.233161E-3,7.634677E-3,2.626054E-2,1.3201651E-2,9.800986E-4,3.0719755E-2,1.78471E-2,8.335562E-3,1.9502377E-2,1.50887985E-2,2.9719694E-2,4.548479E-3,1.792234E-2,2.4945913E-2,1.167001E-2,6.6021844E-3,-1.1713307E-2,2.1485137E-3,-1.8806523E-2,9.087882E-3,-1.2706374E-2,-5.7089115E-3,-2.4527514E-3,1.5055942E-2,1.1823744E-3,1.8818865E-3,1.6621953E-2,-9.982148E-3,3.6440794E-3,-1.6750367E-2,-2.9354602E-2,4.174527E-3,-1.5785705E-2,-4.048936E-3,-2.7108664E-2,2.1498203E-2,5.434447E-3,-7.4396143E-3,-1.5384363E-2],"categories":[],"categories_nodes":[],"categories_segments":[],"categories_sizes":[],"default_left":[0,0,0,0,0,0,0,0,0,0,0,0,0,0,0,0,0,0,0,0,0,0,0,0,0,0,0,0,0,0,0,0,0,0,0,0,0,0,0,0,0,0,0,0,0,0,0,0,0,0,0,0,0,0,0,0,0,0,0,0,0,0,0,0,0,0,0,0,0,0,0,0,0,0,0,0,0,0,0,0,0,0,0,0,0,0,0,0,0,0,0,0,0,0,0,0,0,0,0,0,0,0,0,0,0,0,0,0,0,0,0,0,0,0,0,0,0,0,0,0,0,0,0,0,0,0,0,0,0,0,0,0,0,0,0,0,0],"id":6,"left_children":[1,3,5,7,9,11,13,15,17,19,21,-1,23,-1,-1,25,27,29,31,33,35,37,39,-1,-1,-1,41,-1,43,45,47,49,51,53,55,57,59,61,63,65,-1,67,-1,-1,-1,-1,69,71,73,-1,-1,-1,-1,75,77,79,81,83,85,-1,87,-1,89,91,93,95,-1,-1,97,99,101,103,105,-1,-1,-1,-1,107,-1,109,-1,111,113,115,117,119,121,123,125,127,-1,129,131,-1,133,-1,135,-1,-1,-1,-1,-1,-1,-1,-1,-1,-1,-1,-1,-1,-1,-1,-1,-1,-1,-1,-1,-1,-1,-1,-1,-1,-1,-1,-1,-1,-1,-1,-1,-1,-1,-1,-1,-1,-1,-1,-1],"loss_changes":[2.8160912E1,1.7307964E1,5.740309E0,7.863266E0,1.2467429E1,3.3563805E-1,1.0129138E0,2.3260128E0,4.022398E0,7.3008566E0,7.1608744E0,0E0,2.017498E-1,0E0,0E0,9.00138E-1,1.097334E0,2.1278343E0,1.3849356E0,2.7201533E0,2.3531346E0,3.9309335E0,3.900013E-1,0E0,0E0,0E0,6.1810863E-1,0E0,5.2950203E-1,1.6287351E0,7.303963E-1,1.9655356E-1,2.9953897E-1,9.6686945E0,1.730278E0,1.8771381E0,2.997287E-1,5.9908533E-1,1.6478631E0,2.379055E-1,0E0,2.8259373E-1,0E0,0E0,0E0,0E0,5.178852E-1,6.099777E-1,2.5314116E-1,0E0,0E0,0E0,0E0,8.6683464E-1,5.4641604E-1,3.8506794E-1,1.086098E0,1.117372E0,3.8534993E-1,0E0,3.607791E-1,0E0,3.1215668E-1,1.2277541E0,6.5503335E-1,4.963374E-1,0E0,0E0,4.3763778E-1,4.4877958E-1,2.3821622E-1,5.6390762E-2,8.3307385E-2,0E0,0E0,0E0,0E0,9.5641136E-2,0E0,4.5439243E-1,0E0,1.09770775E-1,1.0716265E0,8.448434E-1,8.8405013E-1,5.490355E-3,2.5814655E-1,4.1561806E-1,3.5955754E-1,1.3197803E-1,0E0,1.0906167E0,2.0255587E0,0E0,5.0033295E-1,0E0,5.118847E-2,0E0,0E0,0E0,0E0,0E0,0E0,0E0,0E0,0E0,0E0,0E0,0E0,0E0,0E0,0E0,0E0,0E0,0E0,0E0,0E0,0E0,0E0,0E0,0E0,0E0,0E0,0E0,0E0,0E0,0E0,0E0,0E0,0E0,0E0,0E0,0E0,0E0,0E0,0E0,0E0],"parents":[2147483647,0,0,1,1,2,2,3,3,4,4,5,5,6,6,7,7,8,8,9,9,10,10,12,12,15,15,16,16,17,17,18,18,19,19,20,20,21,21,22,22,26,26,28,28,29,29,30,30,31,31,32,32,33,33,34,34,35,35,36,36,37,37,38,38,39,39,41,41,46,46,47,47,48,48,53,53,54,54,55,55,56,56,57,57,58,58,60,60,62,62,63,63,64,64,65,65,68,68,69,69,70,70,71,71,72,72,77,77,79,79,81,81,82,82,83,83,84,84,85,85,86,86,87,87,88,88,89,89,91,91,92,92,94,94,96,96],"right_children":[2,4,6,8,10,12,14,16,18,20,22,-1,24,-1,-1,26,28,30,32,34,36,38,40,-1,-1,-1,42,-1,44,46,48,50,52,54,56,58,60,62,64,66,-1,68,-1,-1,-1,-1,70,72,74,-1,-1,-1,-1,76,78,80,82,84,86,-1,88,-1,90,92,94,96,-1,-1,98,100,102,104,106,-1,-1,-1,-1,108,-1,110,-1,112,114,116,118,120,122,124,126,128,-1,130,132,-1,134,-1,136,-1,-1,-1,-1,-1,-1,-1,-1,-1,-1,-1,-1,-1,-1,-1,-1,-1,-1,-1,-1,-1,-1,-1,-1,-1,-1,-1,-1,-1,-1,-1,-1,-1,-1,-1,-1,-1,-1,-1,-1],"split_conditions":[1.77E0,6.8085104E-1,1.8333334E0,4.4751382E-1,8.066547E-1,6.9559616E-1,2.372671E0,1.8181819E-1,9.5081806E-1,1.3422471E0,1.2795031E0,-3.6953297E-2,9.9502485E-3,1.3175105E-2,-1.2643442E-2,3.8063744E-1,5.949785E-1,1.2583057E0,1.5217391E0,1.0950679E0,3.3333334E-1,1.438282E0,2.2857144E0,-2.161E-2,-3.0748365E-2,-7.296254E-3,8.300731E-1,-2.4928747E-2,7.4285716E-1,2.060606E-1,3.3333334E-1,3.2809985E-1,1.2273965E0,2E0,1.2807018E0,7.79735E-1,4.4603556E-1,1.4285715E-1,2.69375E0,1.0366105E0,-7.7407593E-3,4.4444445E-1,1.9436857E-2,-1.0410998E-2,6.646047E-3,-1.11353155E-2,1.5652174E0,9.4463533E-1,1.2352941E0,-1.5377119E-2,-3.498001E-3,1.9025367E-2,3.0420565E-3,1.4819662E-1,2.784057E-1,1.0615907E0,5.80538E-1,1.8299929E0,1.0478469E0,1.2729801E-2,2.239521E0,-4.0020035E-3,1.4E0,3.2329318E-1,2.7048192E0,9.8946315E-1,-2.792698E-2,1.4631331E-2,2.0391567E0,1.1428572E0,1.2314981E0,1.3481765E0,3.327398E-1,5.962524E-3,2.0063011E-2,-8.083947E-3,-3.2543197E-2,1.863354E-2,6.4119585E-3,1.3229814E0,3.6331203E-3,8.8235295E-1,1.2287737E0,2.696337E-1,1.8302815E0,1.8126293E0,7.0764923E-1,7.864552E-1,2.0338984E0,2.3546667E-1,-1.0560123E-2,1.1685239E0,3.5714287E-2,-4.9692006E-3,1.4769543E0,-2.5433762E-2,1.4259819E0,-2.081707E-3,8.233161E-3,7.634677E-3,2.626054E-2,1.3201651E-2,9.800986E-4,3.0719755E-2,1.78471E-2,8.335562E-3,1.9502377E-2,1.50887985E-2,2.9719694E-2,4.548479E-3,1.792234E-2,2.4945913E-2,1.167001E-2,6.6021844E-3,-1.1713307E-2,2.1485137E-3,-1.8806523E-2,9.087882E-3,-1.2706374E-2,-5.7089115E-3,-2.4527514E-3,1.5055942E-2,1.1823744E-3,1.8818865E-3,1.6621953E-2,-9.982148E-3,3.6440794E-3,-1.6750367E-2,-2.9354602E-2,4.174527E-3,-1.5785705E-2,-4.048936E-3,-2.7108664E-2,2.1498203E-2,5.434447E-3,-7.4396143E-3,-1.5384363E-2],"split_indices":[4,4,1,4,21,22,4,4,22,2,4,0,11,0,0,21,21,2,6,1,0,1,3,0,0,0,24,0,10,11,0,0,28,11,16,21,21,16,10,21,0,16,0,0,0,0,16,22,5,0,0,0,0,0,3,2,21,1,9,0,16,0,12,0,3,22,0,0,16,3,21,2,0,0,0,0,0,9,0,3,0,4,23,33,1,1,33,21,5,0,0,21,13,0,22,0,4,0,0,0,0,0,0,0,0,0,0,0,0,0,0,0,0,0,0,0,0,0,0,0,0,0,0,0,0,0,0,0,0,0,0,0,0,0,0,0,0],"split_type":[0,0,0,0,0,0,0,0,0,0,0,0,0,0,0,0,0,0,0,0,0,0,0,0,0,0,0,0,0,0,0,0,0,0,0,0,0,0,0,0,0,0,0,0,0,0,0,0,0,0,0,0,0,0,0,0,0,0,0,0,0,0,0,0,0,0,0,0,0,0,0,0,0,0,0,0,0,0,0,0,0,0,0,0,0,0,0,0,0,0,0,0,0,0,0,0,0,0,0,0,0,0,0,0,0,0,0,0,0,0,0,0,0,0,0,0,0,0,0,0,0,0,0,0,0,0,0,0,0,0,0,0,0,0,0,0,0],"sum_hessian":[1.0437505E3,9.4634344E2,9.740703E1,2.7111502E2,6.752284E2,8.321469E1,1.4192335E1,9.341105E1,1.7770396E2,4.098968E2,2.6533163E2,2.5628786E1,5.7585903E1,9.031443E0,5.1608925E0,6.81056E1,2.5305456E1,1.49822E2,2.788196E1,2.6451636E2,1.4538043E2,1.8423018E2,8.110145E1,2.548729E1,3.2098618E1,9.806752E0,5.8298843E1,8.485198E0,1.682026E1,4.502366E1,1.0479835E2,1.5093327E1,1.2788633E1,4.159089E1,2.2292548E2,9.6402885E1,4.897754E1,3.516295E1,1.4906723E2,7.562547E1,5.4759727E0,4.8448143E1,9.850699E0,9.896124E0,6.9241357E0,5.436851E0,3.9586807E1,8.9831566E1,1.4966783E1,5.147709E0,9.945617E0,7.701282E0,5.087352E0,2.084117E1,2.0749718E1,9.4255394E1,1.2867009E2,7.357975E1,2.2823137E1,6.6107774E0,4.236676E1,5.8029537E0,2.9359997E1,1.2357935E2,2.5487877E1,4.6204475E1,2.9420998E1,7.0580134E0,4.139013E1,2.0557648E1,1.9029158E1,7.752159E1,1.23099785E1,6.588063E0,8.378719E0,5.7249355E0,1.5116234E1,1.4784573E1,5.965145E0,8.7656265E1,6.5991263E0,1.2948036E1,1.15722046E2,5.692782E1,1.6651934E1,1.0041284E1,1.2781855E1,2.4748474E1,1.7618284E1,2.2593464E1,6.7665315E0,5.9448833E1,6.4130516E1,5.1493545E0,2.0338522E1,2.3346113E1,2.2858362E1,1.650395E1,2.488618E1,5.3571477E0,1.52005005E1,1.3258531E1,5.770627E0,7.172848E1,5.7931113E0,5.2318745E0,7.0781045E0,5.519078E0,9.265494E0,7.769708E0,7.988656E1,7.064946E0,5.88309E0,1.08007935E2,7.714111E0,5.078838E0,5.184898E1,8.175267E0,8.476666E0,5.032977E0,5.008306E0,5.811856E0,6.9699984E0,1.9239084E1,5.50939E0,8.991269E0,8.627016E0,8.985699E0,1.3607766E1,5.259468E1,6.854153E0,5.340023E1,1.0730286E1,1.0189245E1,1.0149277E1,5.7472286E0,1.7111134E1],"tree_param":{"num_deleted":"0","num_feature":"40","num_nodes":"137","size_leaf_vector":"1"}},{"base_weights":[9.513779E-4,1.369628E-1,-1.9141667E-1,-4.8140116E-2,1.7719308E-1,-1.2378462E-2,-4.6514505E-1,-2.2741075E-1,2.3014143E-1,3.566733E-1,9.23155E-2,2.7635118E-1,-1.0390825E-1,-5.1742387E-1,-1.5083539E-2,6.542505E-2,-5.244376E-1,3.1520775E-1,-1.2338781E-2,2.511963E-1,5.3602666E-1,2.0517264E-1,-6.193693E-2,-8.826687E-3,3.2976437E-1,-3.9603278E-1,-3.811704E-2,-3.9251468E-1,-6.165294E-1,-2.3193987E-2,1.9225757E-1,1.5823779E-1,-1.8776415E-2,-6.607812E-1,-7.6731937E-3,4.7278053E-1,1.1406577E-1,-6.2233236E-2,3.0661646E-1,5.7917935E-1,1.5134853E-2,2.2589979E-1,-1.6087133E-1,-1.2735587E-1,8.1450135E-2,4.7417906E-1,2.0114821E-1,-4.4523498E-1,-7.6965066E-3,1.53404055E-2,-2.3487799E-1,-4.8030975E-1,-2.2228496E-1,-1.7852983E-2,-6.359071E-1,1.3730186E-2,2.2751081E-3,3.0955178E-1,1.1644653E-2,-3.663487E-2,-2.1969436E-2,2.7650658E-2,1.5159045E-2,-4.656017E-3,1.8158281E-2,1.0624727E-2,-1.2796384E-2,3.2793036E-1,9.69429E-4,3.2123767E-2,4.556226E-1,4.5848215E-1,1.9582961E-1,-1.8476228E-3,-1.3016452E-2,-2.0774725E-1,1.3852614E-1,1.8788639E-1,-5.8456104E-2,2.5739154E-2,1.54296355E-2,3.5705623E-1,1.065899E-1,-1.0094185E-2,-5.4123443E-1,1.3797411E-1,-5.8571275E-2,-2.4776472E-2,-1.2448548E-1,-5.055813E-1,-1.3052197E-2,-2.637259E-1,-2.473692E-3,-3.2746572E-2,-2.0785024E-2,1.0259362E-2,1.9561883E-2,-4.672935E-3,7.3713507E-3,3.5460728E-1,4.8630815E-3,2.5673052E-2,1.4402831E-2,1.6090391E-2,2.667491E-2,2.3165496E-1,5.4373387E-3,5.4567352E-2,-3.1856033E-1,2.71391E-1,4.6646646E-3,-6.4422534E-4,2.7797565E-1,9.069952E-2,-1.1576494E-2,2.1223746E-2,1.1544237E-2,-1.0442393E-2,2.2283557E-1,-3.5031017E-2,-2.1509556E-2,8.968679E-2,1.97243E-2,-1.3424583E-1,1.2098718E-1,2.359421E-2,-1.8822666E-2,-5.4049647E-1,-1.4871149E-2,-7.3612006E-3,-1.4762959E-2,2.0162158E-2,1.1911331E-2,-1.8655293E-3,1.2393631E-2,-4.3933657E-3,5.601592E-3,8.690011E-3,-3.4645025E-3,-2.1074286E-2,-1.1542661E-2,5.7723555E-3,2.0137625E-2,5.0071473E-3,-6.083529E-3,1.6900903E-2,5.3412714E-3,9.963828E-3,-2.0134617E-3,9.549111E-4,1.6017275E-2,2.3020043E-4,1.0643312E-2,8.7489554E-4,-1.2634558E-2,1.6727623E-2,-2.436078E-3,-1.119841E-2,1.1506151E-2,-2.9009392E-2,-1.549142E-2],"categories":[],"categories_nodes":[],"categories_segments":[],"categories_sizes":[],"default_left":[0,0,0,0,0,0,0,0,0,0,0,0,0,0,0,0,0,0,0,0,0,0,0,0,0,0,0,0,0,0,0,0,0,0,0,0,0,0,0,0,0,0,0,0,0,0,0,0,0,0,0,0,0,0,0,0,0,0,0,0,0,0,0,0,0,0,0,0,0,0,0,0,0,0,0,0,0,0,0,0,0,0,0,0,0,0,0,0,0,0,0,0,0,0,0,0,0,0,0,0,0,0,0,0,0,0,0,0,0,0,0,0,0,0,0,0,0,0,0,0,0,0,0,0,0,0,0,0,0,0,0,0,0,0,0,0,0,0,0,0,0,0,0,0,0,0,0,0,0,0,0,0,0,0,0,0,0,0,0,0,0],"id":7,"left_children":[1,3,5,7,9,11,13,15,17,19,21,23,25,27,29,31,33,35,-1,37,39,41,43,-1,45,47,49,51,53,-1,55,57,-1,59,-1,61,63,65,67,69,-1,71,73,75,77,79,81,83,-1,85,87,89,91,-1,93,-1,-1,95,97,-1,-1,-1,-1,-1,-1,-1,-1,99,-1,-1,101,103,105,-1,-1,107,109,111,113,-1,-1,115,117,-1,119,121,123,-1,125,127,-1,129,-1,-1,-1,-1,-1,-1,-1,131,-1,-1,-1,-1,-1,133,135,137,139,141,143,-1,145,147,-1,-1,-1,-1,149,-1,-1,151,-1,153,155,157,-1,159,-1,-1,-1,-1,-1,-1,-1,-1,-1,-1,-1,-1,-1,-1,-1,-1,-1,-1,-1,-1,-1,-1,-1,-1,-1,-1,-1,-1,-1,-1,-1,-1,-1],"loss_changes":[2.7276846E1,4.5563793E0,2.1156055E1,5.5310936E0,7.6128645E0,6.9548726E0,4.0090523E0,5.8877397E0,1.8436005E0,2.9072113E0,5.968158E0,1.5908341E0,3.82347E0,1.6510925E0,1.8383309E0,1.4826787E0,1.5940285E0,1.1306958E0,0E0,1.8105154E0,4.1534805E-1,1.5369864E0,1.3734127E0,0E0,9.6375227E-1,3.6752176E-1,1.7298597E0,9.4549084E-1,1.9286156E-1,0E0,1.5142453E-1,6.492619E-1,0E0,6.350613E-2,0E0,1.1319494E-1,9.4918907E-1,9.2319494E-1,5.311785E-1,8.588791E-2,0E0,1.2222986E0,1.2821582E-1,2.1699657E0,6.979914E-1,1.678896E-2,4.3218768E-1,5.8913136E-1,0E0,1.1863606E0,9.489751E-1,1.2063885E-1,1.7184734E-1,0E0,4.794693E-2,0E0,0E0,4.2860627E-2,2.4195595E-1,0E0,0E0,0E0,0E0,0E0,0E0,0E0,0E0,4.6811008E-1,0E0,0E0,4.4357777E-2,4.0885925E-2,1.1437869E0,0E0,0E0,2.2648466E0,4.2303485E-1,4.817956E-1,5.5527294E-1,0E0,0E0,8.1038475E-4,8.26871E-1,0E0,6.749725E-2,5.738139E-1,1.1278987E0,0E0,9.7933304E-1,1.2857914E-1,0E0,3.218448E-2,0E0,0E0,0E0,0E0,0E0,0E0,0E0,3.16185E-1,0E0,0E0,0E0,0E0,0E0,6.25442E-1,2.8444332E-1,3.6375296E-1,3.9470196E-1,1.9840938E-1,1.6780232E-1,0E0,1.5188909E-1,1.763177E-1,0E0,0E0,0E0,0E0,3.1242096E-1,0E0,0E0,4.463832E-1,0E0,1.0473987E0,9.1451275E-1,9.3724436E-1,0E0,1.2116623E-1,0E0,0E0,0E0,0E0,0E0,0E0,0E0,0E0,0E0,0E0,0E0,0E0,0E0,0E0,0E0,0E0,0E0,0E0,0E0,0E0,0E0,0E0,0E0,0E0,0E0,0E0,0E0,0E0,0E0,0E0,0E0,0E0,0E0],"parents":[2147483647,0,0,1,1,2,2,3,3,4,4,5,5,6,6,7,7,8,8,9,9,10,10,11,11,12,12,13,13,14,14,15,15,16,16,17,17,19,19,20,20,21,21,22,22,24,24,25,25,26,26,27,27,28,28,30,30,31,31,33,33,35,35,36,36,37,37,38,38,39,39,41,41,42,42,43,43,44,44,45,45,46,46,47,47,49,49,50,50,51,51,52,52,54,54,57,57,58,58,67,67,70,70,71,71,72,72,75,75,76,76,77,77,78,78,81,81,82,82,84,84,85,85,86,86,88,88,89,89,91,91,99,99,105,105,106,106,107,107,108,108,109,109,110,110,112,112,113,113,118,118,121,121,123,123,124,124,125,125,127,127],"right_children":[2,4,6,8,10,12,14,16,18,20,22,24,26,28,30,32,34,36,-1,38,40,42,44,-1,46,48,50,52,54,-1,56,58,-1,60,-1,62,64,66,68,70,-1,72,74,76,78,80,82,84,-1,86,88,90,92,-1,94,-1,-1,96,98,-1,-1,-1,-1,-1,-1,-1,-1,100,-1,-1,102,104,106,-1,-1,108,110,112,114,-1,-1,116,118,-1,120,122,124,-1,126,128,-1,130,-1,-1,-1,-1,-1,-1,-1,132,-1,-1,-1,-1,-1,134,136,138,140,142,144,-1,146,148,-1,-1,-1,-1,150,-1,-1,152,-1,154,156,158,-1,160,-1,-1,-1,-1,-1,-1,-1,-1,-1,-1,-1,-1,-1,-1,-1,-1,-1,-1,-1,-1,-1,-1,-1,-1,-1,-1,-1,-1,-1,-1,-1,-1,-1],"split_conditions":[7.9099417E-1,1.1428572E0,1.2795031E0,1.9622642E0,9.4463533E-1,6.759411E-1,1.8333334E0,2.2234513E-1,5.741002E-1,9.380832E-1,1.3422471E0,2.7272727E-2,1.438282E0,2.8416237E-1,1.3795853E0,5.576923E-1,8.125E-1,6.365297E-1,-1.2338781E-2,3.3897942E-1,6.708075E-1,7.5E-1,1.8288288E0,-8.826687E-3,1.4444444E0,1.6744186E0,9.6104085E-1,9.9946105E-1,1.4345404E0,-2.3193987E-2,2.3272727E0,6.4617485E-1,-1.8776415E-2,8.8222307E-1,-7.6731937E-3,7.898773E-1,9.9914527E-1,1.3114754E0,1.4584527E0,1.3443013E0,1.5134853E-2,5.80538E-1,1.25E0,7.754451E-1,9.9044317E-1,1.8382978E0,9.025767E-1,1.568565E-1,-7.6965066E-3,9.18125E-1,9.039196E-1,1.8717948E0,1.109538E0,-1.7852983E-2,1.4341239E0,1.3730186E-2,2.2751081E-3,4.4444445E-1,2.0582523E0,-3.663487E-2,-2.1969436E-2,2.7650658E-2,1.5159045E-2,-4.656017E-3,1.8158281E-2,1.0624727E-2,-1.2796384E-2,2.689441E0,9.69429E-4,3.2123767E-2,3.2697457E-1,1.0222223E0,1.8181819E0,-1.8476228E-3,-1.3016452E-2,6.8720376E-1,3.3161867E-1,6.2537074E-1,1.831398E0,2.5739154E-2,1.54296355E-2,1.0897248E0,1.3686131E0,-1.0094185E-2,4.7940218E-1,2.7701864E0,1.9864864E0,-2.4776472E-2,1.5557325E0,5.952381E-2,-1.3052197E-2,2.3529413E-1,-2.473692E-3,-3.2746572E-2,-2.0785024E-2,1.0259362E-2,1.9561883E-2,-4.672935E-3,7.3713507E-3,2.3175356E0,4.8630815E-3,2.5673052E-2,1.4402831E-2,1.6090391E-2,2.667491E-2,9.9708277E-1,9.9804497E-1,1.0478469E0,3.3179012E-1,7.864552E-1,1.0636942E0,-6.4422534E-4,9.973615E-1,9.464015E-1,-1.1576494E-2,2.1223746E-2,1.1544237E-2,-1.0442393E-2,1.7525773E0,-3.5031017E-2,-2.1509556E-2,8.5583186E-1,1.97243E-2,3.2228917E-1,1.0091743E0,1.6845425E0,-1.8822666E-2,1.0601918E0,-1.4871149E-2,-7.3612006E-3,-1.4762959E-2,2.0162158E-2,1.1911331E-2,-1.8655293E-3,1.2393631E-2,-4.3933657E-3,5.601592E-3,8.690011E-3,-3.4645025E-3,-2.1074286E-2,-1.1542661E-2,5.7723555E-3,2.0137625E-2,5.0071473E-3,-6.083529E-3,1.6900903E-2,5.3412714E-3,9.963828E-3,-2.0134617E-3,9.549111E-4,1.6017275E-2,2.3020043E-4,1.0643312E-2,8.7489554E-4,-1.2634558E-2,1.6727623E-2,-2.436078E-3,-1.119841E-2,1.1506151E-2,-2.9009392E-2,-1.549142E-2],"split_indices":[21,3,4,11,22,4,1,4,21,22,2,12,1,0,21,10,6,3,0,34,4,14,1,0,7,12,30,22,4,0,4,3,0,1,0,10,9,3,4,2,0,21,14,21,28,6,22,0,0,4,34,11,22,0,21,0,0,15,16,0,0,0,0,0,0,0,0,9,0,0,0,6,11,0,0,4,0,34,1,0,0,23,9,0,29,10,6,0,1,6,0,23,0,0,0,0,0,0,0,10,0,0,0,0,0,22,29,9,0,21,9,0,4,34,0,0,0,0,5,0,0,21,0,0,11,3,0,2,0,0,0,0,0,0,0,0,0,0,0,0,0,0,0,0,0,0,0,0,0,0,0,0,0,0,0,0,0,0,0,0,0],"split_type":[0,0,0,0,0,0,0,0,0,0,0,0,0,0,0,0,0,0,0,0,0,0,0,0,0,0,0,0,0,0,0,0,0,0,0,0,0,0,0,0,0,0,0,0,0,0,0,0,0,0,0,0,0,0,0,0,0,0,0,0,0,0,0,0,0,0,0,0,0,0,0,0,0,0,0,0,0,0,0,0,0,0,0,0,0,0,0,0,0,0,0,0,0,0,0,0,0,0,0,0,0,0,0,0,0,0,0,0,0,0,0,0,0,0,0,0,0,0,0,0,0,0,0,0,0,0,0,0,0,0,0,0,0,0,0,0,0,0,0,0,0,0,0,0,0,0,0,0,0,0,0,0,0,0,0,0,0,0,0,0,0],"sum_hessian":[1.0405214E3,6.097168E2,4.3080463E2,1.08821785E2,5.00895E2,2.610828E2,1.6972183E2,6.629619E1,4.2525597E1,1.5979463E2,3.4110034E2,6.235751E1,1.9872528E2,1.5192471E2,1.7797132E1,3.3776253E1,3.2519936E1,3.6376328E1,6.149268E0,1.0213185E2,5.7662777E1,1.9679054E2,1.4430981E2,6.3353825E0,5.6022125E1,3.560652E1,1.6311876E2,6.940704E1,8.251766E1,5.232957E0,1.2564175E1,2.8432804E1,5.3434467E0,2.3208817E1,9.311122E0,1.964003E1,1.67363E1,1.5326982E1,8.680487E1,4.7412014E1,1.0250763E1,1.8660684E2,1.01837E1,9.917431E1,4.5135506E1,2.5124588E1,3.0897537E1,2.8895163E1,6.711359E0,1.289946E2,3.4124157E1,4.4588978E1,2.4818066E1,7.084307E0,7.543336E1,7.4901814E0,5.0739937E0,1.3444107E1,1.4988698E1,1.5775028E1,7.4337873E0,1.1798027E1,7.842002E0,9.478682E0,7.257618E0,6.2976327E0,9.029348E0,8.067652E1,6.128352E0,2.8574146E1,1.8837868E1,1.9732868E1,1.6687398E2,5.1449327E0,5.0387664E0,7.631773E1,2.2856573E1,2.543921E1,1.9696293E1,1.8483368E1,6.6412196E0,1.0616681E1,2.0280857E1,9.051999E0,1.9843164E1,4.8183E1,8.081161E1,9.114593E0,2.5009563E1,3.881011E1,5.7788696E0,1.9593384E1,5.2246823E0,6.761751E1,7.815848E0,7.4445767E0,5.9995303E0,8.624523E0,6.364175E0,7.183184E1,8.844681E0,1.2469546E1,6.3683214E0,8.867222E0,1.0865645E1,1.402643E2,2.6609688E1,2.2815912E1,5.350182E1,1.0955367E1,1.1901206E1,8.144825E0,1.7294388E1,1.08347845E1,8.861508E0,5.378471E0,5.2382107E0,5.246807E0,1.5034049E1,5.9678226E0,1.3875342E1,4.168551E1,6.497488E0,5.7029144E1,2.3782463E1,1.6323008E1,8.686555E0,3.1868181E1,6.941928E0,5.381159E0,1.4212225E1,4.8922215E1,2.2909624E1,7.902524E0,1.3236177E2,1.4283071E1,1.2326618E1,1.1419532E1,1.1396381E1,2.2864471E1,3.0637348E1,5.868048E0,5.087319E0,6.8964868E0,5.0047193E0,1.2081141E1,5.2132454E0,5.6386313E0,5.1961527E0,5.2534156E0,9.780634E0,2.5269014E1,1.6416494E1,2.537402E1,3.1655125E1,1.01004715E1,1.3681993E1,7.3855915E0,8.937417E0,2.5896826E1,5.9713554E0],"tree_param":{"num_deleted":"0","num_feature":"40","num_nodes":"161","size_leaf_vector":"1"}},{"base_weights":[-1.1379836E-3,5.038377E-2,-4.8534438E-1,2.4367355E-1,-3.3232883E-2,-5.920893E-1,5.7704106E-2,8.213963E-2,3.6483464E-1,6.672569E-2,-1.9204666E-1,-3.630165E-2,-2.6832594E-2,2.0586029E-1,-1.0757228E-2,1.683864E-1,-3.9126504E-2,4.2470488E-1,4.2210925E-2,1.4988843E-1,-8.972846E-2,-8.8125244E-2,-4.2717323E-1,1.8705577E-2,-1.8168915E-4,-2.492471E-2,2.3695375E-1,-2.6739476E-2,1.0347475E-1,4.6875197E-1,2.6514563E-1,2.2136405E-1,-2.0408802E-1,-1.09858796E-1,1.9618952E-1,-1.6125011E-1,8.18549E-2,-3.9243355E-1,-1.3583431E-2,-3.5075486E-1,-2.7154258E-2,-9.964945E-3,9.61554E-2,2.887859E-1,3.9213557E-2,-9.626122E-3,1.897305E-1,5.2655566E-1,3.27205E-1,9.919881E-2,3.4464264E-1,2.939128E-3,1.7431846E-2,-1.7914148E-3,-1.711686E-2,-5.6025624E-1,3.443229E-1,2.2286324E-1,-6.852961E-2,-3.1286642E-1,6.679562E-2,1.3267572E-1,-1.0212074E-2,-2.433364E-1,-2.3982262E-2,5.540637E-2,-2.4439856E-1,-4.3237558E-1,-1.8820903E-1,9.822147E-3,-5.617486E-4,3.473476E-1,2.0241152E-1,-3.1102912E-3,7.668735E-3,-2.569168E-2,4.027704E-1,1.26589555E-2,5.442675E-1,4.219272E-1,-4.7279126E-3,-3.6886465E-4,9.515717E-3,8.521515E-3,4.2011827E-1,-3.1368E-2,-1.7507281E-2,2.4318835E-2,8.755404E-3,2.8280145E-1,1.3862196E-1,5.3612026E-3,-1.8913043E-1,-2.3158682E-3,-3.3993325E-1,2.0292589E-1,-9.9559955E-2,-6.417539E-3,1.8330269E-1,-1.602373E-2,-4.664268E-3,-1.8537791E-2,1.9408083E-1,-6.4525865E-2,-4.0744054E-1,-1.4618598E-2,-2.3182267E-2,-1.4500454E-1,-1.2390806E-2,7.1050613E-3,2.066573E-2,1.4938599E-2,2.112299E-3,-1.0077771E-2,1.1212899E-2,2.611697E-2,6.338963E-3,1.930338E-2,2.864368E-2,1.2832736E-2,2.447452E-2,1.38245E-2,2.436657E-2,1.8877024E-2,1.1200387E-2,-2.3838237E-3,1.0100062E-2,-2.6812514E-3,-1.3496326E-2,-2.5757566E-2,-1.5206033E-2,-2.049823E-3,1.4647163E-2,3.6873897E-3,-1.0678095E-2,1.1658739E-2,-1.0333479E-3,9.943078E-3,-6.6071684E-3,-8.983983E-3,1.2823132E-2,-1.6125282E-2,6.3293152E-3,-1.0415061E-2,-2.3688069E-2,-4.459611E-3,-9.749283E-3],"categories":[],"categories_nodes":[],"categories_segments":[],"categories_sizes":[],"default_left":[0,0,0,0,0,0,0,0,0,0,0,0,0,0,0,0,0,0,0,0,0,0,0,0,0,0,0,0,0,0,0,0,0,0,0,0,0,0,0,0,0,0,0,0,0,0,0,0,0,0,0,0,0,0,0,0,0,0,0,0,0,0,0,0,0,0,0,0,0,0,0,0,0,0,0,0,0,0,0,0,0,0,0,0,0,0,0,0,0,0,0,0,0,0,0,0,0,0,0,0,0,0,0,0,0,0,0,0,0,0,0,0,0,0,0,0,0,0,0,0,0,0,0,0,0,0,0,0,0,0,0,0,0,0,0,0,0,0,0,0,0,0,0,0,0,0,0],"id":8,"left_children":[1,3,5,7,9,11,13,15,17,19,21,-1,-1,23,-1,25,27,29,31,33,35,37,39,-1,-1,41,43,-1,45,47,49,51,53,55,57,59,61,63,65,67,-1,-1,69,71,73,-1,75,77,79,81,83,-1,-1,-1,-1,85,87,89,91,93,95,97,-1,99,-1,101,103,105,107,-1,-1,109,111,-1,-1,113,115,-1,117,119,-1,-1,-1,-1,121,-1,-1,-1,-1,123,125,-1,127,-1,129,131,133,-1,135,-1,-1,137,139,141,143,-1,-1,145,-1,-1,-1,-1,-1,-1,-1,-1,-1,-1,-1,-1,-1,-1,-1,-1,-1,-1,-1,-1,-1,-1,-1,-1,-1,-1,-1,-1,-1,-1,-1,-1,-1,-1,-1,-1,-1,-1,-1],"loss_changes":[2.5841398E1,1.5139944E1,5.808819E0,5.5055847E0,1.0401453E1,2.2923088E-1,7.426604E-1,1.2879179E0,3.0981312E0,5.2487097E0,6.145396E0,0E0,0E0,4.1401917E-1,0E0,9.573631E-1,3.7117267E0,8.312721E-1,1.2083942E0,3.1856732E0,1.7346218E0,4.0038595E0,4.942217E-1,0E0,0E0,4.3508208E-1,5.3273463E-1,0E0,1.0835817E0,6.888256E-1,3.8421202E-1,3.0521786E-1,2.5805792E-1,8.466164E0,1.5944777E0,3.4556737E0,6.367713E-1,3.3500767E-1,2.2907128E0,5.741558E-1,0E0,0E0,1.3468719E-1,1.416378E-1,1.5058017E-1,0E0,1.4908719E0,2.1609688E-1,1.3645942E0,1.1479177E-1,2.0503688E-1,0E0,0E0,0E0,0E0,7.200432E-2,4.1377068E-1,9.878826E-1,4.7042933E-1,4.1602087E-1,9.3726844E-1,5.020806E-1,0E0,1.4199686E-1,0E0,1.140901E0,9.441961E-1,5.072117E-3,1.1162221E-2,0E0,0E0,2.6045108E-1,2.8565973E-1,0E0,0E0,7.916069E-1,4.7100592E-1,0E0,8.552742E-2,1.7877007E-1,0E0,0E0,0E0,0E0,3.7837029E-4,0E0,0E0,0E0,0E0,5.720749E-1,1.0312604E0,0E0,1.2737945E-1,0E0,1.832571E-1,5.082474E-1,3.8907504E-1,0E0,3.1754017E-1,0E0,0E0,1.8354297E0,9.474666E-1,8.751381E-1,1.2808037E-1,0E0,0E0,1.8909812E-2,0E0,0E0,0E0,0E0,0E0,0E0,0E0,0E0,0E0,0E0,0E0,0E0,0E0,0E0,0E0,0E0,0E0,0E0,0E0,0E0,0E0,0E0,0E0,0E0,0E0,0E0,0E0,0E0,0E0,0E0,0E0,0E0,0E0,0E0,0E0,0E0,0E0,0E0,0E0],"parents":[2147483647,0,0,1,1,2,2,3,3,4,4,5,5,6,6,7,7,8,8,9,9,10,10,13,13,15,15,16,16,17,17,18,18,19,19,20,20,21,21,22,22,25,25,26,26,28,28,29,29,30,30,31,31,32,32,33,33,34,34,35,35,36,36,37,37,38,38,39,39,42,42,43,43,44,44,46,46,47,47,48,48,49,49,50,50,55,55,56,56,57,57,58,58,59,59,60,60,61,61,63,63,65,65,66,66,67,67,68,68,71,71,72,72,75,75,76,76,78,78,79,79,84,84,89,89,90,90,92,92,94,94,95,95,96,96,98,98,101,101,102,102,103,103,104,104,107,107],"right_children":[2,4,6,8,10,12,14,16,18,20,22,-1,-1,24,-1,26,28,30,32,34,36,38,40,-1,-1,42,44,-1,46,48,50,52,54,56,58,60,62,64,66,68,-1,-1,70,72,74,-1,76,78,80,82,84,-1,-1,-1,-1,86,88,90,92,94,96,98,-1,100,-1,102,104,106,108,-1,-1,110,112,-1,-1,114,116,-1,118,120,-1,-1,-1,-1,122,-1,-1,-1,-1,124,126,-1,128,-1,130,132,134,-1,136,-1,-1,138,140,142,144,-1,-1,146,-1,-1,-1,-1,-1,-1,-1,-1,-1,-1,-1,-1,-1,-1,-1,-1,-1,-1,-1,-1,-1,-1,-1,-1,-1,-1,-1,-1,-1,-1,-1,-1,-1,-1,-1,-1,-1,-1,-1],"split_conditions":[1.77E0,6.8085104E-1,1.8333334E0,8.5170764E-1,8.111453E-1,6.260563E-1,2.3272727E0,1.8181819E-1,9.5081806E-1,1.3422471E0,1.2795031E0,-3.630165E-2,-2.6832594E-2,1.1952286E0,-1.0757228E-2,4.3443388E-1,6.1550176E-1,1.0222223E0,9.4464946E-1,1.1977518E0,7.79735E-1,1.438282E0,1.0459639E0,1.8705577E-2,-1.8168915E-4,4E0,2.826087E0,-2.6739476E-2,2.060606E-1,6.708075E-1,2.0370371E0,6.1538464E-1,9.9502485E-3,2E0,1.0264052E0,1.8299929E0,1.3451374E0,1E0,9.558139E-1,1.0326626E0,-2.7154258E-2,-9.964945E-3,2.4520989E-1,5.314593E-1,7.878913E-1,-9.626122E-3,1.0833334E0,5.6E-1,9.422808E-1,1.1658909E0,1.6363636E0,2.939128E-3,1.7431846E-2,-1.7914148E-3,-1.711686E-2,8.6356854E-1,5.3333336E-1,1.3640257E0,1.4758025E0,9.6506834E-1,1.0704145E0,7.582041E-1,-1.0212074E-2,1.2222222E0,-2.3982262E-2,1.9864864E0,1.2392225E0,1.4259819E0,1.5868946E0,9.822147E-3,-5.617486E-4,7.058824E-1,1.7709924E0,-3.1102912E-3,7.668735E-3,6.363636E-1,1.6062992E0,1.26589555E-2,1.6183206E0,1.9565217E0,-4.7279126E-3,-3.6886465E-4,9.515717E-3,8.521515E-3,1.44E0,-3.1368E-2,-1.7507281E-2,2.4318835E-2,8.755404E-3,6.9586307E-1,1.4370861E0,5.3612026E-3,9.378882E-1,-2.3158682E-3,1.3431134E0,7.2E-1,8.1733054E-1,-6.417539E-3,2.7672956E0,-1.602373E-2,-4.664268E-3,1.109538E0,2E0,2.2298136E0,1.5072464E0,-1.4618598E-2,-2.3182267E-2,4.8412293E-1,-1.2390806E-2,7.1050613E-3,2.066573E-2,1.4938599E-2,2.112299E-3,-1.0077771E-2,1.1212899E-2,2.611697E-2,6.338963E-3,1.930338E-2,2.864368E-2,1.2832736E-2,2.447452E-2,1.38245E-2,2.436657E-2,1.8877024E-2,1.1200387E-2,-2.3838237E-3,1.0100062E-2,-2.6812514E-3,-1.3496326E-2,-2.5757566E-2,-1.5206033E-2,-2.049823E-3,1.4647163E-2,3.6873897E-3,-1.0678095E-2,1.1658739E-2,-1.0333479E-3,9.943078E-3,-6.6071684E-3,-8.983983E-3,1.2823132E-2,-1.6125282E-2,6.3293152E-3,-1.0415061E-2,-2.3688069E-2,-4.459611E-3,-9.749283E-3],"split_indices":[4,4,1,22,21,22,4,4,22,2,4,0,0,22,0,21,21,6,10,1,21,1,21,0,0,39,3,0,11,4,15,10,11,11,30,1,2,11,30,22,0,0,21,28,28,0,9,4,22,28,11,0,0,0,0,2,10,16,1,22,22,27,0,3,0,6,2,4,4,0,0,15,15,0,0,4,15,0,15,15,0,0,0,0,9,0,0,0,0,21,15,0,4,0,2,4,28,0,15,0,0,22,15,15,11,0,0,23,0,0,0,0,0,0,0,0,0,0,0,0,0,0,0,0,0,0,0,0,0,0,0,0,0,0,0,0,0,0,0,0,0,0,0,0,0,0,0],"split_type":[0,0,0,0,0,0,0,0,0,0,0,0,0,0,0,0,0,0,0,0,0,0,0,0,0,0,0,0,0,0,0,0,0,0,0,0,0,0,0,0,0,0,0,0,0,0,0,0,0,0,0,0,0,0,0,0,0,0,0,0,0,0,0,0,0,0,0,0,0,0,0,0,0,0,0,0,0,0,0,0,0,0,0,0,0,0,0,0,0,0,0,0,0,0,0,0,0,0,0,0,0,0,0,0,0,0,0,0,0,0,0,0,0,0,0,0,0,0,0,0,0,0,0,0,0,0,0,0,0,0,0,0,0,0,0,0,0,0,0,0,0,0,0,0,0,0,0],"sum_hessian":[1.033865E3,9.3524646E2,9.861851E1,2.818357E2,6.5341077E2,8.234246E1,1.6276045E1,1.2151195E2,1.6032375E2,4.0136713E2,2.5204364E2,2.0563087E1,6.1779377E1,1.0707443E1,5.5686016E0,7.078193E1,5.0730015E1,1.3496204E2,2.536171E1,2.620939E2,1.3927324E2,1.7574329E2,7.630035E1,5.50246E0,5.204983E0,1.8699408E1,5.2082523E1,1.071966E1,4.0010357E1,1.0424649E2,3.0715546E1,1.4740784E1,1.0620926E1,3.9443703E1,2.2265019E2,9.834146E1,4.093177E1,3.3739815E1,1.4200348E2,4.8410408E1,2.7889935E1,7.3984623E0,1.1300945E1,4.0901016E1,1.1181509E1,8.750375E0,3.1259981E1,7.208789E1,3.2158607E1,1.0676537E1,2.003901E1,7.1144605E0,7.6263237E0,5.358447E0,5.2624784E0,1.9687092E1,1.9756609E1,2.0241272E2,2.0237463E1,5.8845837E1,3.949563E1,3.521296E1,5.71881E0,1.3850747E1,1.9889067E1,1.0991133E2,3.209214E1,3.1122532E1,1.7287878E1,5.4149237E0,5.886021E0,2.257428E1,1.8326736E1,6.1621947E0,5.0193143E0,1.5980344E1,1.5279636E1,5.3169417E0,6.677094E1,2.6260477E1,5.8981295E0,5.344366E0,5.3321705E0,7.04224E0,1.2996769E1,1.3416397E1,6.2706947E0,9.721342E0,1.0035267E1,1.1688867E2,8.5524055E1,8.280729E0,1.1956734E1,5.674606E0,5.317123E1,2.1600176E1,1.789545E1,5.470824E0,2.9742136E1,8.397823E0,5.452924E0,7.225158E1,3.765975E1,1.5922135E1,1.6170006E1,7.5717335E0,2.3550798E1,1.2013159E1,5.274719E0,6.257898E0,1.6316381E1,1.0902229E1,7.4245076E0,9.494008E0,6.4863358E0,1.0038161E1,5.2414756E0,1.2444616E1,5.432633E1,9.01262E0,1.7247858E1,5.7733283E0,7.223441E0,4.2685165E1,7.420351E1,2.1772696E1,6.3751358E1,5.0877066E0,6.8690276E0,6.7519107E0,4.6419323E1,5.9693775E0,1.5630797E1,7.240864E0,1.0654588E1,2.3783669E1,5.9584675E0,2.4540195E1,4.7711384E1,5.117564E0,3.254219E1,6.4831276E0,9.439008E0,5.0743217E0,1.1095685E1,6.991023E0,5.0221357E0],"tree_param":{"num_deleted":"0","num_feature":"40","num_nodes":"147","size_leaf_vector":"1"}},{"base_weights":[2.2661735E-3,5.2927233E-2,-4.8432034E-1,2.3718767E-1,-2.5868544E-2,-5.8237433E-1,5.986852E-2,8.3109915E-2,3.4897768E-1,7.791166E-2,-1.9150156E-1,-3.554479E-2,-2.63554E-2,1.26407435E-2,-1.3536534E-2,-7.9862334E-2,1.5392882E-1,4.2610297E-1,1.356269E-1,1.5920112E-1,-8.67077E-2,-9.6513465E-2,-4.082733E-1,1.6211167E-1,-2.2100237E-1,2.2381155E-1,-2.829153E-3,4.7398606E-1,1.3408318E-1,2.728775E-1,-3.2538872E-2,-5.9835233E-2,2.0050389E-1,-1.5639453E-1,9.066496E-2,-3.7519985E-1,-2.9193975E-2,-3.2983252E-1,-2.6596943E-2,6.897018E-4,1.2563399E-2,-2.5446648E-2,-4.1123446E-2,1.3386941E-1,3.3278447E-1,-9.23457E-3,1.05978966E-1,8.419581E-3,4.8803347E-1,2.291306E-1,-1.2286098E-3,-1.0201674E-3,3.72959E-1,1.4938764E-1,-1.2287761E-2,-5.074971E-1,3.434995E-1,2.2119804E-1,-5.092527E-2,-3.106364E-1,5.9488285E-2,3.848013E-2,1.3755864E-2,-3.7902289E-3,-4.3150052E-1,2.5251286E-2,-2.2618671E-1,-2.1934582E-2,-2.010946E-1,2.1113215E-3,-8.544553E-3,2.6083046E-1,-1.1455847E-1,2.3437968E-2,2.0651348E-1,1.41221685E-2,-2.0747798E-2,2.7012214E-2,4.0222177E-1,1.5709877E-2,5.075367E-3,7.2103026E-3,2.4046326E-2,-1.6201712E-3,1.6023254E-2,-9.2713125E-3,-3.2166604E-2,4.2999122E-1,3.5348241E-3,2.400948E-1,-2.706381E-4,7.762333E-3,-1.0089113E-2,3.3219106E-4,-3.4199256E-1,1.6469517E-1,-1.2693866E-1,-4.2043995E-2,1.6155463E-1,-4.7830233E-1,-1.3349823E-2,-1.9250201E-2,1.6792287E-1,-2.3447782E-2,-8.646737E-2,-2.3548338E-1,-5.3939912E-3,1.6268382E-2,2.6377114E-3,-2.3617327E-2,1.204778E-2,2.0115731E-2,-2.3616855E-3,-9.857436E-3,7.982689E-3,1.1247486E-2,2.1936227E-2,2.523286E-2,1.3764963E-2,1.5662229E-2,8.083015E-3,1.0839332E-2,-8.393756E-3,-2.4614505E-2,-1.5504189E-2,-1.0923355E-2,1.3170041E-2,2.1939809E-3,-1.2808015E-2,3.2441646E-3,-1.0529287E-2,2.2794334E-3,1.3342901E-2,-2.644906E-2,-1.5812239E-2,4.1138646E-3,-4.7896816E-3,1.621248E-2,3.3609737E-3,1.4683048E-3,-1.8698324E-2,-7.723715E-3,-1.5216409E-2],"categories":[],"categories_nodes":[],"categories_segments":[],"categories_sizes":[],"default_left":[0,0,0,0,0,0,0,0,0,0,0,0,0,0,0,0,0,0,0,0,0,0,0,0,0,0,0,0,0,0,0,0,0,0,0,0,0,0,0,0,0,0,0,0,0,0,0,0,0,0,0,0,0,0,0,0,0,0,0,0,0,0,0,0,0,0,0,0,0,0,0,0,0,0,0,0,0,0,0,0,0,0,0,0,0,0,0,0,0,0,0,0,0,0,0,0,0,0,0,0,0,0,0,0,0,0,0,0,0,0,0,0,0,0,0,0,0,0,0,0,0,0,0,0,0,0,0,0,0,0,0,0,0,0,0,0,0,0,0,0,0,0,0],"id":9,"left_children":[1,3,5,7,9,11,13,15,17,19,21,-1,-1,-1,-1,23,25,27,29,31,33,35,37,39,41,43,45,47,49,51,53,55,57,59,61,63,65,67,-1,-1,-1,-1,69,71,73,-1,75,-1,77,79,-1,-1,81,83,-1,85,87,89,91,93,95,97,-1,-1,99,101,103,-1,105,-1,-1,107,109,-1,111,-1,113,-1,115,-1,-1,-1,-1,-1,-1,-1,-1,117,-1,119,121,-1,-1,-1,123,125,127,129,131,133,-1,135,137,-1,139,141,-1,-1,-1,-1,-1,-1,-1,-1,-1,-1,-1,-1,-1,-1,-1,-1,-1,-1,-1,-1,-1,-1,-1,-1,-1,-1,-1,-1,-1,-1,-1,-1,-1,-1,-1,-1,-1],"loss_changes":[2.5537395E1,1.36282425E1,5.2475224E0,4.8133736E0,1.1327187E1,2.1388054E-1,1.0776547E0,1.3917608E0,2.6179638E0,5.437479E0,5.1863737E0,0E0,0E0,0E0,0E0,1.2947974E0,9.170872E-1,1.5999851E0,1.0392752E0,2.4697866E0,1.6782417E0,3.3243012E0,5.716448E-1,1.837444E-1,1.20687E0,5.2270555E-1,5.4955727E-1,3.5489845E-1,2.793911E-1,7.322346E-1,8.495689E-1,8.095627E0,1.2017555E0,3.2490816E0,3.6102554E-1,5.488949E-1,1.5530726E0,6.090956E-1,0E0,0E0,0E0,0E0,1.767984E-1,1.0826904E0,3.4095836E-1,0E0,3.9480582E-1,0E0,2.1645927E-1,9.241092E-2,0E0,0E0,3.865254E-1,3.813915E-1,0E0,8.0803347E-1,5.282085E-1,8.8558006E-1,5.977853E-1,5.668583E-1,8.303618E-1,3.165481E-1,0E0,0E0,9.425545E-2,7.26594E-1,1.0225016E0,0E0,5.3591967E-2,0E0,0E0,2.8357387E-1,1.6381838E0,0E0,7.64628E-1,0E0,3.832614E-1,0E0,1.6362095E-1,0E0,0E0,0E0,0E0,0E0,0E0,0E0,0E0,6.641674E-2,0E0,1.0679216E0,6.7789423E-1,0E0,0E0,0E0,9.512377E-2,1.0717883E0,3.5234243E-1,3.684616E-1,1.413117E-1,6.6661835E-3,0E0,6.8973756E-1,4.0625715E-1,0E0,7.1425766E-1,4.8673213E-2,0E0,0E0,0E0,0E0,0E0,0E0,0E0,0E0,0E0,0E0,0E0,0E0,0E0,0E0,0E0,0E0,0E0,0E0,0E0,0E0,0E0,0E0,0E0,0E0,0E0,0E0,0E0,0E0,0E0,0E0,0E0,0E0,0E0,0E0,0E0,0E0,0E0],"parents":[2147483647,0,0,1,1,2,2,3,3,4,4,5,5,6,6,7,7,8,8,9,9,10,10,15,15,16,16,17,17,18,18,19,19,20,20,21,21,22,22,23,23,24,24,25,25,26,26,27,27,28,28,29,29,30,30,31,31,32,32,33,33,34,34,35,35,36,36,37,37,42,42,43,43,44,44,46,46,48,48,49,49,52,52,53,53,55,55,56,56,57,57,58,58,59,59,60,60,61,61,64,64,65,65,66,66,68,68,71,71,72,72,74,74,76,76,78,78,87,87,89,89,90,90,94,94,95,95,96,96,97,97,98,98,99,99,101,101,102,102,104,104,105,105],"right_children":[2,4,6,8,10,12,14,16,18,20,22,-1,-1,-1,-1,24,26,28,30,32,34,36,38,40,42,44,46,48,50,52,54,56,58,60,62,64,66,68,-1,-1,-1,-1,70,72,74,-1,76,-1,78,80,-1,-1,82,84,-1,86,88,90,92,94,96,98,-1,-1,100,102,104,-1,106,-1,-1,108,110,-1,112,-1,114,-1,116,-1,-1,-1,-1,-1,-1,-1,-1,118,-1,120,122,-1,-1,-1,124,126,128,130,132,134,-1,136,138,-1,140,142,-1,-1,-1,-1,-1,-1,-1,-1,-1,-1,-1,-1,-1,-1,-1,-1,-1,-1,-1,-1,-1,-1,-1,-1,-1,-1,-1,-1,-1,-1,-1,-1,-1,-1,-1,-1,-1],"split_conditions":[1.77E0,6.8085104E-1,1.8333334E0,8.5170764E-1,8.066547E-1,6.260563E-1,2.3043478E0,2.696337E-1,9.4463533E-1,1.3422471E0,1.2795031E0,-3.554479E-2,-2.63554E-2,1.26407435E-2,-1.3536534E-2,4.9804986E-1,2.0391567E0,5E-1,9.819277E-1,1.1977518E0,7.79735E-1,1.438282E0,1.0459639E0,4.6782276E-1,1.5118514E-1,1.1506025E0,1.0106952E0,1.7751197E0,9.086053E-1,8.0687064E-1,9.4899505E-1,2E0,1.0264052E0,1.8299929E0,1.4389905E0,1.4285715E-1,9.558139E-1,9.9946105E-1,-2.6596943E-2,6.897018E-4,1.2563399E-2,-2.5446648E-2,7.006959E-1,1.8181819E-1,1.3592232E0,-9.23457E-3,1.2261153E0,8.419581E-3,1.3442005E0,9.270248E-1,-1.2286098E-3,-1.0201674E-3,1.6713614E0,9.4712657E-1,-1.2287761E-2,1.4285715E-1,2.784057E-1,2.8E0,1.0312698E0,6.8720376E-1,1.0704145E0,1.0948081E0,1.3755864E-2,-3.7902289E-3,1.2057261E0,2.7142856E0,1.7692307E0,-2.1934582E-2,1.4928458E0,2.1113215E-3,-8.544553E-3,5.827095E-1,5.961308E-1,2.3437968E-2,1.3207547E-1,1.41221685E-2,2.1552794E0,2.7012214E-2,6.635071E-1,1.5709877E-2,5.075367E-3,7.2103026E-3,2.4046326E-2,-1.6201712E-3,1.6023254E-2,-9.2713125E-3,-3.2166604E-2,7.4285716E-1,3.5348241E-3,7.159286E-1,2.6628478E0,7.762333E-3,-1.0089113E-2,3.3219106E-4,1.3431134E0,9.786828E-1,8.1733054E-1,1.0969025E0,2.0124223E0,1.1274238E0,-1.3349823E-2,1.3243926E0,1.3451374E0,-2.3447782E-2,8.877902E-1,1.5782313E0,-5.3939912E-3,1.6268382E-2,2.6377114E-3,-2.3617327E-2,1.204778E-2,2.0115731E-2,-2.3616855E-3,-9.857436E-3,7.982689E-3,1.1247486E-2,2.1936227E-2,2.523286E-2,1.3764963E-2,1.5662229E-2,8.083015E-3,1.0839332E-2,-8.393756E-3,-2.4614505E-2,-1.5504189E-2,-1.0923355E-2,1.3170041E-2,2.1939809E-3,-1.2808015E-2,3.2441646E-3,-1.0529287E-2,2.2794334E-3,1.3342901E-2,-2.644906E-2,-1.5812239E-2,4.1138646E-3,-4.7896816E-3,1.621248E-2,3.3609737E-3,1.4683048E-3,-1.8698324E-2,-7.723715E-3,-1.5216409E-2],"split_indices":[4,4,1,22,21,22,4,33,22,2,4,0,0,0,0,2,15,8,10,1,21,1,21,27,11,3,9,3,22,34,22,11,30,1,28,15,30,22,0,0,0,0,21,4,3,0,2,0,2,34,0,0,9,22,0,16,3,7,2,4,22,4,0,0,30,10,13,0,3,0,0,27,29,0,9,0,16,0,4,0,0,0,0,0,0,0,0,10,0,21,3,0,0,0,2,22,28,22,16,4,0,2,2,0,33,4,0,0,0,0,0,0,0,0,0,0,0,0,0,0,0,0,0,0,0,0,0,0,0,0,0,0,0,0,0,0,0,0,0,0,0,0,0],"split_type":[0,0,0,0,0,0,0,0,0,0,0,0,0,0,0,0,0,0,0,0,0,0,0,0,0,0,0,0,0,0,0,0,0,0,0,0,0,0,0,0,0,0,0,0,0,0,0,0,0,0,0,0,0,0,0,0,0,0,0,0,0,0,0,0,0,0,0,0,0,0,0,0,0,0,0,0,0,0,0,0,0,0,0,0,0,0,0,0,0,0,0,0,0,0,0,0,0,0,0,0,0,0,0,0,0,0,0,0,0,0,0,0,0,0,0,0,0,0,0,0,0,0,0,0,0,0,0,0,0,0,0,0,0,0,0,0,0,0,0,0,0,0,0],"sum_hessian":[1.0339185E3,9.3722986E2,9.668866E1,2.801354E2,6.570944E2,8.1867325E1,1.4821337E1,1.1852223E2,1.6161317E2,4.0430182E2,2.5279262E2,2.1050802E1,6.081652E1,9.507686E0,5.3136516E0,3.5863506E1,8.265872E1,1.179703E2,4.3642887E1,2.706748E2,1.33627E2,1.7677576E2,7.601686E1,1.3157453E1,2.2706053E1,5.687575E1,2.5782974E1,1.0081613E2,1.7154165E1,2.3687426E1,1.9955462E1,4.2871334E1,2.2780348E2,9.602041E1,3.7606586E1,3.3503975E1,1.4327177E2,4.875733E1,2.7259533E1,5.3733068E0,7.7841454E0,8.027384E0,1.4678669E1,3.2379448E1,2.4496304E1,9.3904085E0,1.6392565E1,5.0013633E0,9.5814766E1,1.0449728E1,6.7044363E0,6.229246E0,1.745818E1,1.0929361E1,9.026099E0,2.0196716E1,2.267462E1,2.105908E2,1.7212675E1,5.5749866E1,4.0270542E1,3.0255413E1,7.3511744E0,5.6745124E0,2.7829462E1,1.1293138E2,3.0340395E1,2.5113796E1,2.3643534E1,9.348633E0,5.3300366E0,2.1395288E1,1.0984158E1,1.0488953E1,1.4007351E1,6.338114E0,1.0054451E1,5.6277756E1,3.9537014E1,5.393074E0,5.056654E0,6.346777E0,1.11114025E1,5.6917553E0,5.237606E0,6.6928205E0,1.3503896E1,1.6778751E1,5.8958683E0,1.9395735E2,1.6633455E1,7.260652E0,9.9520235E0,5.084991E0,5.0664875E1,2.5817463E1,1.4453078E1,1.868726E1,1.1568153E1,2.0180515E1,7.6489472E0,8.6740685E1,2.6190699E1,1.0222283E1,2.011811E1,1.6156744E1,7.4867897E0,1.5900025E1,5.495263E0,5.310779E0,5.673379E0,7.5759563E0,6.431395E0,5.036657E0,5.017794E0,7.974105E0,3.1562908E1,9.790689E0,6.988062E0,9.881063E1,9.514672E1,7.1196566E0,9.513799E0,6.3459554E0,4.431892E1,5.0399036E0,2.077756E1,6.5091085E0,7.9439697E0,1.1809829E1,6.8774323E0,6.1872897E0,5.380863E0,1.3648257E1,6.532259E0,3.7253113E1,4.9487576E1,9.3916855E0,1.6799013E1,1.4980372E1,5.137739E0,8.912862E0,7.2438827E0],"tree_param":{"num_deleted":"0","num_feature":"40","num_nodes":"143","size_leaf_vector":"1"}},{"base_weights":[-1.6305759E-3,4.8076898E-2,-4.8659348E-1,2.3093358E-1,-3.2283943E-2,-5.713278E-1,-8.658424E-3,3.8340278E-2,3.1924823E-1,6.6009104E-2,-1.898207E-1,-5.898638E-1,-1.9215895E-2,7.3932963E-3,-1.3072192E-2,1.3389973E-1,-2.4750997E-1,1.6985297E-1,3.7761536E-1,2.4664038E-1,-4.0164543E-3,-9.706732E-2,-4.03233E-1,-2.2067977E-2,-3.0996194E-2,-3.132442E-3,2.248962E-1,-2.3753703E-2,-4.7218807E-2,-8.689317E-3,2.0808667E-1,4.251175E-1,2.517462E-1,2.4868881E-2,2.118283E-1,-1.0450763E-1,8.887378E-2,-3.643928E-1,-2.558873E-2,-3.2938424E-1,-2.6058737E-2,9.118236E-3,-9.616659E-2,2.6118594E-1,-1.1428873E-3,-9.4196005E-3,3.9215437E-3,3.6137578E-1,1.3396958E-1,4.4872904E-1,9.2051225E-3,3.6082882E-1,-6.8509555E-3,-3.9096713E-2,2.4051775E-1,-3.0252088E-2,-5.6878105E-2,1.1890425E-1,-2.0770934E-1,-5.1473044E-3,-4.221203E-1,1.8450545E-2,-2.619058E-1,-3.6175868E-1,-8.61368E-3,-2.3565716E-1,8.01493E-3,3.0711251E-1,4.6374197E-3,2.4486521E-2,1.0533417E-2,1.9320092E-1,-4.4575E-3,1.0898436E-2,4.6100882E-1,8.541009E-3,2.03408E-2,-6.8703615E-3,4.7178543E-3,-3.0744828E-3,-4.981377E-4,2.675301E-1,-2.634076E-3,-1.366887E-1,1.2085019E-1,1.3840297E-1,-1.2703021E-2,-1.4382421E-2,-5.1584337E-3,-4.7548592E-1,-7.0640943E-3,4.8116706E-2,-2.4979423E-1,-9.986724E-2,-2.5394028E-2,-4.0632057E-1,-9.98205E-3,1.7553781E-3,-2.0685798E-2,7.848829E-3,1.6902778E-2,-2.3911782E-3,1.3093901E-2,-4.9858117E-3,4.5573614E-3,2.3688398E-2,1.5417628E-2,1.4900732E-2,4.692036E-3,-1.5411513E-2,-2.4249002E-3,9.257536E-3,-6.7337896E-3,1.3473056E-2,4.263857E-3,-1.4145965E-2,-2.5498254E-2,-6.7626656E-4,8.194185E-3,-2.9792702E-3,-1.920333E-2,4.732139E-3,-1.4938235E-2,-1.2714705E-2,-2.1918725E-2],"categories":[],"categories_nodes":[],"categories_segments":[],"categories_sizes":[],"default_left":[0,0,0,0,0,0,0,0,0,0,0,0,0,0,0,0,0,0,0,0,0,0,0,0,0,0,0,0,0,0,0,0,0,0,0,0,0,0,0,0,0,0,0,0,0,0,0,0,0,0,0,0,0,0,0,0,0,0,0,0,0,0,0,0,0,0,0,0,0,0,0,0,0,0,0,0,0,0,0,0,0,0,0,0,0,0,0,0,0,0,0,0,0,0,0,0,0,0,0,0,0,0,0,0,0,0,0,0,0,0,0,0,0,0,0,0,0,0,0,0,0,0,0,0,0],"id":10,"left_children":[1,3,5,7,9,11,13,15,17,19,21,23,-1,-1,-1,25,27,29,31,33,35,37,39,-1,-1,41,43,-1,45,-1,47,49,51,-1,53,55,57,59,61,63,-1,-1,65,67,-1,-1,-1,69,71,73,-1,75,77,79,81,-1,83,85,87,-1,89,91,93,95,-1,97,-1,99,-1,-1,-1,101,103,-1,105,-1,-1,-1,-1,-1,-1,107,-1,109,111,113,-1,-1,-1,115,-1,117,119,121,-1,123,-1,-1,-1,-1,-1,-1,-1,-1,-1,-1,-1,-1,-1,-1,-1,-1,-1,-1,-1,-1,-1,-1,-1,-1,-1,-1,-1,-1,-1],"loss_changes":[2.4860657E1,1.3753378E1,3.8778515E0,4.847454E0,1.0088928E1,5.554962E-2,6.501245E-1,2.5178533E0,1.642786E0,5.078893E0,4.9150124E0,4.874611E-2,0E0,0E0,0E0,8.588723E-1,1.0323191E0,7.825787E-1,7.297001E-1,8.7373114E-1,2.7189858E0,3.3493333E0,4.8596764E-1,0E0,0E0,5.0851595E-1,3.7793922E-1,0E0,2.527976E-1,0E0,5.375824E-1,4.8729897E-1,1.1532359E0,0E0,7.309947E-1,3.3007507E0,1.3730319E0,5.1508856E-1,1.4593914E0,1.876688E-1,0E0,0E0,7.390262E-1,2.5129056E-1,0E0,0E0,0E0,2.1061587E-1,2.989573E-1,1.5600967E-1,0E0,1.8138027E-1,1.858535E-1,6.658187E-3,7.276182E-1,0E0,1.8441317E0,1.0394996E0,8.9687884E-2,0E0,3.8231134E-1,9.569581E-1,8.269564E-1,2.067151E-1,0E0,6.461637E-1,0E0,7.694316E-2,0E0,0E0,0E0,